function [y1] = temporary_neural_network_fcn(x1)
%MYNEURALNETWORKFUNCTION neural network simulation function.
%
% Generated by Neural Network Toolbox function genFunction, 02-Aug-2016 14:28:30.
%
% [y1] = myNeuralNetworkFunction(x1) takes these arguments:
%   x = Qx98 matrix, input #1
% and returns:
%   y = Qx9 matrix, output #1
% where Q is the number of samples.

%#ok<*RPMT0>

% ===== NEURAL NETWORK CONSTANTS =====

% Input 1
x1_step1_xoffset = [0;0;0;0;0;0;0;0;0;0;0;0;0;0;0;0;0;0;0;0;0;0;0;0;0;0;0;0;0;0;0;0;0;0;0;0;0;0;0;0;0;0;0;0;0;0;0;0;0;0;0;0;0;0;0;0;0;0;0;0;0;0;0;0;0;0;0;0;0;0;0;0;0;0;0;0;0;0;0;0;0;0;0;0;0;0;0;0;0;0;0;0;0;0;0;0;1;1];
x1_step1_gain = [0.0761444636790044;0.0716333536314918;0.0708912793128298;0.072137792982066;0.0704421877078995;0.0761460509672044;0.071719641126974;0.0781783167294794;0.0776370972183765;0.0749101158547091;0.0754438043685909;0.0744438072111037;0.076096617955992;0.074076750526815;0.0783932010046731;0.0768197242820942;0.0713300366196345;0.0682555562138558;0.0714067711587882;0.0718641254849608;0.0782218516804715;0.0732909391831912;0.0756976967909741;0.0765991721018157;0.0674115363308476;0.0806333471449223;0.0711133883281327;0.0726076225941354;0.0769562263660286;0.0706223638024641;0.0757414299717114;0.0758281728080869;0.0722562279936297;0.0779607669687801;0.0783103684588746;0.0746246921593269;0.0799555917270914;0.0792994718110224;0.0683392397543676;0.0790884519948062;0.077775357220852;0.0786457102848135;0.070958345452525;0.0713243934361633;0.0763584853788848;0.0777543624294444;0.077295617501118;0.0759920600350966;0.0405805217237585;0.0374627638538552;0.0391329921840169;0.0392479874732285;0.0371448519795045;0.0434434778256057;0.042411710251693;0.043670137614763;0.0382752424727997;0.0435392296602061;0.0409322063945394;0.0426066558273742;0.0416087959886588;0.041489774215865;0.0403609368658929;0.0411401249646103;0.0411185957347781;0.041856293848766;0.0445111354170839;0.041888645244646;0.0394152493158198;0.0413036423049928;0.0342781196128452;0.0429894106574372;0.0426739514048907;0.0381845387800126;0.0428694953255997;0.0398039956543654;0.0395161704911681;0.0396024744908815;0.0387396682056111;0.0411598555886015;0.0437075660613734;0.0430541060997935;0.0430011088608101;0.0396670334056955;0.0437058401900755;0.0436786294566817;0.046373993694412;0.0437171212403833;0.0419467287065206;0.0423327711209215;0.0438551327646399;0.0415137678367677;0.0407012887630115;0.0436266902849199;0.0374660843996937;0.0392068449104167;0.5;0.0425531914893617];
x1_step1_ymin = -1;

% Layer 1
b1 = [1.5056228120829152;1.9722684107539308;-1.4138203223025201;-1.433465505535271;1.3413760077176797;-1.2226350714005596;-1.3081631432374188;1.3145885951360561;1.3393164346974613;1.2367840633394158;-1.2303853702499892;1.2044203209811513;0.98166269941226592;0.073173445404881104;1.0551821497866709;1.1217007397135057;1.181372321418718;-1.0616230467422325;-2.496575960716966;-0.95089492291844679;0.86993366292250096;0.82545331913292141;0.12460959799060563;0.94554460772458537;-0.92789085755382805;0.78465328733744311;-0.59515464661147199;-0.68111767501520348;0.69938053118301302;-0.66674750719501785;0.45257301083686624;-0.46800760271277131;-0.60512690767952004;-0.44009618098949405;0.51278248103108504;-0.38797309475922381;-0.3849196347172556;0.43850427536772779;1.3298076553526457;-0.36138180590429198;-0.29891611131257034;1.5323734940893172;0.28875428648979967;-0.38374486645618489;-0.1906941722467772;-0.12328741923163614;0.0077331282663499592;-0.35477167862678383;0.14717923848915321;0.052738353125472939;0.028904039106612416;0.0046105632823510096;1.1223572747776578;0.38103219791592174;0.097436000433791081;0.26124085569634869;0.30840542258653098;0.19457737542010556;0.25171469594692253;-0.2248945752283262;-0.32473489193503735;0.57337132478199748;-0.38876489750513338;0.39093332955390769;0.4062651955911788;-0.58252766580607118;-0.66229538762834339;-0.62100049778930733;0.50539950581977477;0.69507919765832882;-0.57309962700346695;-0.64754817900196959;0.82269152980422189;0.78438622214742149;0.79133103353835776;1.2248947211097023;0.91072095577238465;0.6272782203484647;-0.83233492707803358;0.86137211554347615;1.0117919304237055;-1.1062566897405453;-0.93637061279705369;1.0571628523103249;-1.1351844440977743;1.0853984071799825;0.33098309603654152;-1.6147752488928087;0.31160908182442248;0.33674118541420539;1.4476606715326488;1.2068177300693179;-0.8013146284635434;-1.3531912557767349;1.7603180958735773;-1.4865560227516466;-1.4408833571883599;1.4930404804858397];
IW1_1 = [-0.21880842757775418 -0.15089011108618919 -0.14224134640103706 -0.02336900568184783 0.08310121763822724 -0.035895015111786471 -0.13706837250315426 -0.016921005308276574 0.060027705708550094 0.19752715248274255 -0.1526435938394404 0.18408253187197171 -0.029469847868696688 -0.19787698854241595 -0.21196871229159275 -0.069527739464498181 0.17570836304668927 -0.065012764538743342 -0.17448047870901409 -0.090159720834332435 -0.18919415440840681 -0.21943595652652831 -0.048339255544146774 0.17084237596513244 -0.17911538025729656 0.099478209832269071 -0.041175692323445222 -0.21968161387203766 0.16090257647390679 0.1227932466026848 -0.059314782167942018 0.027770440822197148 -0.2022116441486706 0.10424967603742381 0.027214143452252502 -0.082687908520609213 0.0024887208273886062 -0.023715089416144565 -0.28593401156114356 0.048166896107932573 -0.21392645282864495 0.029832307209308045 -0.17785933485580968 0.18143911178415278 0.14884079541581618 0.1576120913163632 0.063754788503209217 -0.024588460089636912 -0.26947866489402589 0.052315853041908368 -0.20802096726106897 0.1417068149969794 -0.13943882171114697 -0.11645770594362022 -0.071719733554339596 0.21966004351820947 -0.080517744894416182 -0.039746797305783198 -0.041175100198273612 -0.25579572850291399 -0.25137010075398913 -0.061900899518580549 0.21140962511820494 -0.083632906216991834 -0.25425555001204897 -0.019551178312280457 0.12380737415442376 -0.15363707802755389 0.11369816899687045 -0.17662515671717605 0.012502890121051859 0.16321708640994703 0.0081092860925027401 0.070451518574374219 -0.18120414341382238 0.16617013481630882 0.049362075440581264 -0.21822113939285748 -0.13375751939362779 -0.2883806584351134 -0.26436410012225786 0.15233659264526395 -0.24557989262159685 -0.18425233240091557 -0.021078944503016547 -0.069368175163738638 0.18131931379244734 -0.021427819469350122 -0.25611735801768593 0.1878198478282786 -0.026830191816302671 0.13799123447323974 -0.16339576303830713 0.1702677250180343 -0.054255490557253254 -0.031183947191998643 0.006650556808921332 -0.11511525912761565;-0.34112320882337038 0.11317990061184087 0.16873592682549163 -0.020360355585280415 -0.0038272922589117852 -0.049422370527023168 -0.042079742113700011 -0.14388023782569323 0.21593745452790239 -0.12202652074434241 -0.030848283993447682 0.048240424192427474 -0.17734783273157673 -0.029255487918613911 0.03465972657966819 0.041269330664156764 0.18671805415334061 0.035298975955944924 -0.19281922867147155 0.13294664105156342 -0.02693765518129413 0.044387423048112266 -0.094317450245506196 -0.060149965671230342 0.052684900776375901 0.036030545184933434 -0.083190565004643141 0.028668579222744784 -0.088923822641321662 0.072764158561752612 -0.13528836569878763 -0.10077310494161618 0.049510804314698044 -0.024862724602741169 -0.098915560014916429 -0.016516053036331399 -0.03990129137847833 -0.089053393058335734 0.043101926637185782 -0.026730840218998405 0.072424995572616946 0.050824931162159387 0.028191487125224689 0.015815018424170095 0.12831559435883727 0.24218439572763462 -0.051693936832488463 0.10003549469593094 -0.27393907275898349 -0.2892939736639738 0.026823102910585209 -0.095859108326782821 0.092630075344823926 -0.18849618356335138 -0.018204924127844621 -0.041112655498744023 -0.071705625136463363 -0.10369867853225122 -0.12661764682615961 0.085265229099082421 0.080706969190411509 -0.14476235799346793 -0.037903511487731169 -0.16171783087441058 0.068681521762632439 0.022084486797234782 -0.020909439328127537 0.017563140847601071 -0.14560366654203369 -0.068664777467293409 0.035639314791118419 0.050522244825178496 0.024751826230315764 -0.13701033415062361 -0.15740401725792164 0.11282268063776804 -0.010816852311185223 0.087278986073962117 0.078850964434066292 -0.12339314849895119 0.069457000488808665 -0.04323031605403508 -0.11861896526643143 0.02252420465558478 -0.058777808678597353 -0.048126160842813237 0.084070684500059681 0.045577997805071574 -0.063429353762953972 0.010480548882782889 0.073940899116764616 -0.26624253026202777 0.029362763506726553 -0.074062751952887154 -0.081758347061055503 0.053111539166338248 -4.2178202355879986 -0.48643089811960399;0.10176816859344745 -0.017461676688230891 -0.090188979829739405 0.1055448548387339 0.15872728909235001 -0.19457617547921258 -0.0030793425130081998 0.21597533225628249 0.10736756662640959 -0.029658568338276563 -0.0096900672450498243 0.019895974524399802 0.1884605520414695 -0.043830679410248187 0.11020414301003663 0.26294192221762364 -0.09839933727097043 0.067443809327911525 -0.18151595753552469 0.11987617469637563 -0.045339145055988336 0.15974498088136763 0.058890718977457769 -0.031922507449489615 0.20959517385972293 0.13213592657423487 0.19308084516346549 -0.095047565252786542 0.024408492675355383 0.16185271050302591 0.0044517471530634879 -0.19172169359430119 0.11125786443808393 -0.16576537595277893 -0.07743787514320527 0.0075592443028219452 0.16586594713602876 0.24684264840350678 0.2100369251904155 0.092297400026897278 0.12605288101325776 -0.14347042366687104 0.052433169848327271 0.035962333445219069 0.098025058347323279 -0.1355893829957128 -0.11644432349561686 -0.23451395821511831 -0.21866097483203184 -0.083876524999762794 0.17272686340133356 0.062421648383351562 0.13109679011368536 0.057529979561567648 0.21235070456260383 0.21630145228810382 -0.023690348205335773 -0.10819441642545373 0.074864955787278753 -0.20212853939059383 0.20583031729533546 0.19598985874524658 0.11815198227020703 0.215933437078936 -0.19907194478791745 0.0905272417763196 -0.059095266672989498 -0.040708263878142081 -0.20640709558997619 0.17943082793284987 0.18748922193901296 -0.17664124513085697 0.26448391276710209 0.11623394241495544 0.24798290759657504 -0.18413715899722316 -0.16118829986638086 0.25625333637129788 -0.029011950894006756 -0.11584546326993407 -0.21395986527843566 0.1447431017266875 0.18736021510720985 -0.074053472629990458 0.12176662106841873 -0.18197384244934242 -0.093800636382524102 0.084922989158763978 -0.20142969545876482 -0.19277988110360023 0.18060589153730536 -0.081608352464732026 -0.08742638273095947 0.25707815958008728 -0.042348841232466967 0.150818794143118 0.045513606238189806 0.1283579759616639;0.21857131692668466 -0.17875390742635375 0.0076162640056215382 -0.19044042656351828 -0.13581994335723277 -0.21218882246087442 -0.021853799285196238 0.049306898178571167 0.13082443544050573 0.097332864467713318 0.24395001769681837 0.023349049799921542 -0.028124403163968668 -0.11547099999417638 0.052564521105230952 0.2483388981659046 0.14874332567099571 -0.15784308894244056 -0.041229762986740755 0.050925728853841397 -0.10457517885782452 0.079410373812045562 -0.18907004138732358 -0.043316180396459111 0.14901266973978902 0.033411624034972026 0.10766068971540767 -0.085516785320293637 0.14203429501253342 -0.17581210465693708 0.13607369165824418 -0.030958782886341692 -0.14567529589378056 0.14878547655614924 -0.13982119484150535 -0.099946886085353556 0.11856840524006385 -0.18194743927101861 0.083769598237485129 0.2875535192960228 0.12561743215804352 0.12891992736460609 -0.061219683114898324 0.15276076234448349 0.046559189485109127 0.24864425752788086 0.25089960215668911 0.17874208477068143 0.18984617947633808 0.12807831822873 -0.058967233939751722 -0.12937864791802925 0.025955350345396307 0.17139193426705523 -0.20160543826224175 -0.077660433209243193 -0.020380760301196312 0.29104438861363413 0.14295527282223192 -0.030346636772183303 -0.14673518964010315 0.20672841815031193 0.20260439343680933 -0.056303336672802191 -0.095037968095761122 0.01714617725478677 0.11932115926893999 -0.13012544550919744 -0.1434160355846589 -0.083735371923585072 -0.20891389571173011 -0.19652913059828239 -0.017563602517588494 0.16598963596763169 0.011455407333321148 0.24348355149719905 0.22265928938615967 0.21171242906890012 0.18430098573176046 0.1807523556513273 0.22839953589873652 0.27446454898840839 0.27260505433094373 0.1260767408918945 0.13677076455269652 0.16843219773862059 -0.15562253396962758 0.094297770991398161 0.2022739051071433 -0.059722677136247869 -0.042398910275039371 -0.081915456420152175 -0.019516871212631966 -0.11924894899383318 0.10426593204626376 -0.024275462531931982 -0.049777422758611856 -0.24365506853587049;-0.11131810616715337 -0.16570382820411719 0.16882273794964217 -0.046677035123255065 0.11146371799906157 0.21332526238621757 -0.15079825387834789 -0.052977409639069425 -0.0077778169070499949 0.22285734778979008 0.28686726602558221 0.096018126878786345 -0.16816243414855625 0.044550095145358487 0.053100553397058145 0.055640670280517363 0.036022718099634893 0.15114739016616582 0.20932951892177554 -0.078933061640512156 -0.0016429908789964054 -0.026166381191552939 0.069542962983950032 -0.16090689528360799 0.07241019087020667 -0.054365179034422666 -0.12548891737695195 0.073733365460887948 0.13727356182799028 0.1244058642471674 -0.068063232681833508 0.0090786789351590853 0.19156348195705888 -0.25172750336959104 0.15188240227376479 0.068282952834680638 0.089219778869903815 0.11335749145436314 0.01737366294585297 -0.22319534653806269 0.085992828814665509 -0.24450472320263145 -0.0073418523504257625 -0.30762111179402035 0.17386524330596817 -0.062879653227622748 -0.22327922154040228 -0.015230936830805102 -0.25228185448132628 0.053442191090212213 0.17567590968010852 0.29103872829132282 -0.20932526718435449 0.026397185168887772 0.18671301837869375 -0.33355117255149747 -0.22091192871363108 0.23569086472361739 -0.078779695873391009 -0.075036544726167012 -0.18688448336404728 -0.051237996726856284 -0.21190097578668135 -0.0248868974219431 -0.1441555581941675 -0.056560918556593218 0.1643126957353799 -0.11926273688531865 -0.19869470656871388 -0.040950305032084938 0.14024595902656445 0.131590697243403 0.023183601343882004 -0.02255263290175966 0.014913735714643437 0.085994116853324115 0.12324291822351827 0.19761665421950225 -0.10879371826487737 0.011397277929947932 0.14273133716273229 -0.10913806847133192 -0.15655569096626484 0.19611464109262255 -0.1369509485973982 0.086915091653621726 0.18218153064675374 0.029600797791163393 0.25333393539313354 -0.29200093926410303 -0.0048876274825894817 -0.26300625383831949 0.032384607056638114 0.062018226652058292 0.17497318284597493 -0.19884851566363901 -0.073349529520165241 0.17247495494185583;0.27982919911806453 -0.047214561551973004 -0.062266669218203258 -0.36059211291321042 0.087760765957445877 0.076078854880898203 0.061932842935400446 0.076440943446448514 -0.0778766064861868 -0.13878688484691537 0.19103949825070776 -0.21127036415210626 0.005260090851819374 0.15781447128803855 -0.14579151536070106 0.035239144355684072 -0.23060063730693545 0.12026092053292249 0.28568349084577832 0.35096577449493044 0.2621587175037271 0.11462513939422204 -0.070530980843339253 0.016482385358209409 -0.051146436167010409 0.18170747794171227 -0.17270167874978815 -0.076699579341344304 -0.22587949219770992 -0.29979187005548674 0.21624958571528033 0.059097473120793574 -0.027321991997171207 0.069540127934023463 -0.1310743681137323 -0.096833487847402963 0.13022314738932142 0.2773551932778392 0.098058605769943782 -0.20604220975057294 -0.19943494016151725 -0.10987443775639424 -0.034682726337701371 0.25478010590527655 -0.046126390459880574 0.1200013629082721 -0.092643539501963565 -0.16149687414705324 -0.11261032918455283 -0.2859848047994995 -0.17342933347542594 -0.029095483600358844 0.1128406832217685 -0.19099523864378179 0.19629566992081263 -0.022291184601020763 0.15997637301023637 0.090890973731083097 -0.17875915142889284 -0.018975902626127014 0.20302381030757546 -0.30001399570797449 -0.19219651908998525 0.13897003892523932 -0.11100351064114115 0.11945470358887163 0.027425270963610835 0.19702373127078807 -0.079132441099460785 0.076911974318376999 -0.055445548806677951 -0.19659636817602749 0.23103853918660822 -0.20355435072356054 0.014854421338336402 -0.26057002248570876 0.097591638858172763 -0.050880172559485029 0.17514342492669185 0.12696323168580853 0.10985051791654149 -0.15068604906548391 0.028124716081566144 0.10679872301277928 -0.096773605972621093 -0.0717445274236998 0.18414348056122326 -0.059438891447013087 -0.092357001689811064 0.0091609132815429432 0.11998104951427452 -0.055954411118086828 0.15767655962133753 0.11205534398411325 -0.16272758023365255 -0.058640405935309781 -0.61097365556646754 -0.50645354683789301;0.18405501329953655 0.20590826777079141 -0.18281498037166766 0.19759361932662048 -0.068468602195464995 0.022800157195933989 -0.20931243159291651 -0.12343384993461727 -0.17387833720066953 -0.11881672592072205 -0.035582676027076945 -0.14609842342193871 -0.11305913046556483 0.0084511812160137281 0.11148505652806801 -0.11047407301099706 0.14178312309418584 0.13517479050997769 0.11268822743288889 -0.050334034900899847 -0.020691468415235597 0.051313935850234242 -0.14828562922142516 0.17697109623398888 -0.22189731729741322 0.15515615106097874 0.21481126362382025 -0.14923699716025871 0.11976625401359278 0.037335221181067434 -0.043941489295564976 0.23885452402328744 0.17637695457447497 -0.13131440541773637 0.084719031355631302 0.016544817819440009 -0.14344923788592148 -0.13595414527564717 0.22949550024225698 0.1383441087382225 0.022479562645888244 -0.22718438002516519 0.26130161300366922 -0.11538689009012654 -0.22393929424258449 0.16487524649061666 0.070563313047825205 -0.014893506269536205 0.15899866006794339 0.15097256778401782 -0.045664804387424623 0.16718046593932356 0.25003400397279385 0.2389024086186298 0.06674785588869242 -0.096385830940976011 -0.033690109715565339 0.096136322222817816 -0.017346969431267123 -0.00057974484343484766 0.0099101171572290592 -0.012113150826486212 -0.12229079704159533 0.14988337720749353 -0.1769599828101662 -0.06428736682429663 0.064722318238030943 0.20251299744845949 0.16442905593629203 0.19206702381535659 -0.21873529745871989 -0.13596379170612746 0.23208056085339854 0.14684156902072226 0.13588284091441372 -0.013194440379019755 0.10091179000240473 -0.13162935916110852 0.24723581666795894 0.24268511545622287 -0.014237063166344913 0.12963639055910917 0.2434889222930576 0.010460114761068399 0.22661888847340786 0.1729924590020625 0.024438758449725394 0.19097526822943545 0.19420496926039868 0.22656385648107036 -0.0071402538051067868 -0.15490360355985539 0.13209696338223853 0.10730857524240131 0.021515738203887753 0.25733934031344552 -0.14019649123259187 0.21915526467467114;-0.59430264649255238 -0.13397324730871382 -0.072047537401475861 -0.14789945679673122 -0.17344628984988025 -0.10179038135384604 -0.21507386995590311 0.030425938895754907 0.27367204759656255 -0.13473942872240777 -0.12763639298942508 0.17842093066247475 -0.042479674259146886 0.020106126717008919 -0.22740136437471867 -0.26726887778242475 0.0029713623591159167 0.23413346871211968 -0.11404371115414334 -0.12155533648214613 0.020954138706526803 0.1298609949423708 0.033764400234026472 -0.11825769020505124 -0.032079142315316937 0.072923701968998444 0.068536032624028853 0.16435804295590964 -0.0087586969218110735 0.056021470614465642 -0.03236628573605109 -0.4164417343656639 -0.13920280420487471 0.038877942394329075 0.14878785433648456 -0.10065212246838176 -0.15876163428191312 -0.0063168810516299294 0.098070039999829203 0.096706325108484606 -0.1903230578041932 0.35954266779627708 -0.0088800007410231013 -0.033696208312442154 0.054571541306669559 0.15063389365453955 0.18464042056005714 0.17946193212729158 0.4656294225233123 0.4278965549052241 0.05516613185776717 -0.10859636335428521 -0.093065940441220976 -0.018561505312985869 0.13034151836954114 -0.11412173943868252 -0.062785633330584456 -0.022637203087515344 0.11215367601649608 0.13806137283895456 0.13344337677673415 -0.25376145413858636 0.14776427125253899 -0.15510534626194611 -0.039883874832559701 0.19034165521728891 -0.23313979080980093 -0.18355534247408528 0.054033703231112326 -0.22547621116195846 0.071877848751311368 -0.15918616986382136 -0.08386506327479655 -0.078904384529069213 -0.080388565108486604 -0.22766761879485073 -0.028636452856933399 -0.14367724419886535 0.028537388767573498 0.13005811342387885 0.084871940836307849 0.12194309041764109 -0.058023591389005542 -0.11261558360088587 0.12455172999117692 0.23486314088749502 0.076683022037419085 0.083998048242281936 -0.16045937682614334 -0.11448430869649023 0.12385626704520783 0.075090150437827102 -0.043882657502010883 -0.017394867662244063 -0.012489565721347065 0.14109350641921009 -0.37291134101460677 1.1257171784000111;-0.18377387518334473 0.017540021514635889 -0.17447892647313656 -0.018529251943231722 -0.019751154372238219 0.088242414498247296 0.11628107390275715 0.027813433952896455 0.080123448657332702 0.0090834285006704905 -0.14918633818453519 0.15588005859387302 -0.18300712806506947 0.10600284413344738 -0.18593498823566798 -0.2805804282114725 0.015753871703147106 -0.036961541196535344 0.16429424120298902 -0.16083909803270402 -0.20154751769617668 -0.16957585266035316 0.15497974256026859 -0.0081913515724606391 0.2001577928655415 -0.19057588129866285 -0.25106896471656404 -0.04971391573525407 0.13594022636880532 -0.092381954533760496 -0.2444808158762663 -0.27576795220987005 -0.127751295180666 0.0012439218145262677 0.15512753852760014 0.12553150969359558 0.15719041069470188 -0.30150225095288002 -0.17782616637299956 -0.25809332361233472 0.060880834745804475 0.13057151809118317 0.10039472091953153 0.10247189131843826 0.095468009626210382 0.075930840614399711 0.14279207747763289 0.010785186871529058 0.29706732489126525 0.064368616257005615 -0.15092789210302543 0.086895495353703264 -0.055514586541729603 -0.049181835906135792 0.15670578469054555 0.068262067828200476 -0.016430495082788661 0.10276491315339367 -0.0019554922685150302 -0.19244065614840844 -0.0087111627516499486 0.042361641387719869 -0.26887730103441687 -0.21013311332804899 -0.13975537027466783 0.12423779947520187 -0.05013887950653198 0.14433152459789383 0.11862709181536368 -0.18449777297197456 0.031202875093593874 0.022805971867710845 -0.057787605903693605 0.11028589066536032 -0.010160630121263276 -0.23383680406210303 0.020921784818606563 -0.041214888706291308 -0.17197857858545354 -0.096912321619385317 -0.31342953333648266 -0.016814219748852624 -0.12599523794817191 -0.039407694110486842 0.0012092356108428651 0.037829922790198874 -0.27079669441097481 -0.19381862420928012 -0.17137719334043519 -0.14790993662125049 -0.18116045880065113 0.047300406456854578 -0.24251833592967709 -0.20660847209721037 -0.20176367895296993 0.099588316481648342 -0.26809098780084756 -0.16714761341511356;-0.26708193448707557 0.2003445217263676 0.070552959900597109 -0.12525171102507929 0.19918274938318289 -0.14741875842527219 0.13552453211145801 -0.24670758092690534 0.17937269646565446 0.12898337821050854 0.061638840637243043 -0.053826950371126753 0.16231132288803199 -0.17206302746213545 -0.1625206468923191 -0.091343268051179524 -0.15686248146646292 -0.075763697444044473 0.17064823442711094 -0.19078479318944178 -0.043824652564962298 -0.083939968017885877 -0.016809819342347761 -0.026956331109271956 0.15950003093034371 0.058591715982957357 -0.13835568027806763 0.056296098255541285 0.15603757208912927 0.066621271037659843 -0.12246410771227696 -0.20153104971117788 -0.23429233998786397 0.20186916233231983 0.018801896345356017 0.1569864509759491 -0.30236626780824882 -0.25155897320534576 0.0076052381667199897 0.00014508465629606946 -0.18510452807161029 -0.25371865791780429 -0.18679502697038344 -0.0085011407021834753 -0.038739910241689261 0.18076327081389054 -0.26970502481773428 -0.079029626166370048 -0.17162401416035503 0.097856656060862926 0.16102004422661334 -0.22206044619960655 0.16396767602832646 -0.074536836915359173 0.10772037990469617 0.09248587547600394 -0.055417169167443783 -0.17580848594660259 0.1196676831018053 0.10587978925943632 -0.081121858868897764 -0.23305106800641898 -0.0048933170205638652 -0.23371148187726024 -0.091769662826065496 0.022761134606171504 0.036276538603234453 -0.017657606933363216 -0.18771783110059437 0.16148548854886968 0.01898032709056573 -0.28951541903817496 -0.050454888035614515 -0.13399929779008354 -0.17230538515498475 -0.10201580377248193 -0.071979827730066448 0.16016277003221147 -0.060063493347341089 -0.039853573352349451 -0.024479689537533534 -0.29113899117288417 0.029710723790061729 0.0068643651137528178 0.017046270660368099 -0.17073305573871866 0.013735849276753651 -0.21175883987498012 -0.15835509521128541 -0.13590492360070702 -0.15599458358243068 0.018673233873332785 -0.27245437586350935 -0.19997486913940463 -0.26983484897936866 -0.25701311120513981 -0.021215427357425019 -0.088159636753017162;0.047691816176000844 0.27410312060647307 0.26116218930923751 0.095623016048001774 0.013449433007480326 0.06231166246544783 0.31894248246725515 -0.097471180492248191 -0.029960225768049679 0.13408227953548105 0.1421988469708341 -0.004570721395117207 -0.18177258482246944 0.20651120261259362 0.1306589992048196 0.17543806279607524 0.20457025465440731 0.090982694768534572 -0.12053404994837119 0.039761513297336522 -0.15258388724434893 -0.16905833503526804 0.034203475536401143 0.1263948212661338 -0.10078298624756335 -0.20696605818662761 -0.010189932609002189 0.2525722727297956 -0.16656355990485075 -0.035232378747159836 0.14947205776651878 0.069107675789857728 0.089953933845393644 0.012697171423262023 -0.063295627685049788 -0.13555983113308834 0.0035359629029103256 -0.016654732047290552 0.23521499104706881 -0.014456176204872412 0.13533614555069928 -0.17734350348656666 -0.17900492306121646 -0.099883000702628857 -0.0021935861027351108 0.18189975284163712 -0.10607202255651975 0.023686939212606371 -0.14080807611886603 -0.1001051834343763 -0.097341372189908931 0.029112430311377179 0.15680743970691877 -0.15607393957763779 0.12578048728948146 -0.093494965900667207 -0.091122187142250136 0.29599179960530697 -0.1704215667445749 0.26825577701878667 0.11794796036355994 0.22753853546616881 0.017056773921542354 0.30844812145111306 0.24716331018482973 -0.19323228053273048 0.23506625307257806 0.044232552803259981 0.10167969830747287 0.19910116564243538 0.12978323557047389 -0.046130453591068793 -0.1674775269127253 -0.07803581609065055 0.071412604318556241 0.14221581483394691 -0.031060107410500613 0.18427593193389433 0.05997513257457833 0.039818671816452274 -0.12990703971300541 0.10170756779771974 -0.067912240050076164 0.31628994733256743 -0.18256172481673164 -0.12988109706252435 0.24474124339454617 0.079371513702650137 0.027213123218734123 0.15490160453470797 -0.1640468945437252 0.055939726797284595 -0.13051457673704833 0.14952301709156779 -0.010171686666413344 0.27424525793337279 -0.068111419506088067 -0.11985409195437605;-0.12873618274671308 0.065341014766893357 -0.083552542434330648 0.061921467545187521 -0.18168583501185731 -0.06793705403704646 0.13829824980873817 0.11033451274856594 -0.034005762039464149 0.16368762828383301 0.12448720112743557 -0.061494918518335315 0.0019197211411311598 0.07305810691814936 0.19658805016971623 0.1742416406853981 -0.19464720015672518 -0.12990445545369556 0.14888242903960347 0.072645314336840586 -0.12567223274608808 -0.051452644572699019 0.031749442787975403 -0.17247904220093904 0.087021081482949014 -0.045203603538309954 0.081421805019278204 -0.14384893089901896 -0.12490454829711205 -0.014858352950466626 -0.21798040143579439 0.12359240826378751 -0.14747251417736754 -0.21918724250065788 -0.17651222849380305 -0.029857907441732504 -0.15420584116179872 -0.070066984346267833 -0.0058939414244959338 -0.13661004509424965 -0.12207742065564392 -0.16275183517153963 0.13915276664719664 -0.15791115250372126 0.018370451847007079 -0.16868019066555176 -0.17597832889275719 -0.058710657487074616 -0.13817876202938792 -0.15255924494095363 -0.16977193486277845 -0.25976002574985685 0.027631638273133814 -0.29578437238266231 -0.095565948904377168 0.059044124551750302 0.046539015496028013 0.19763321808567358 -0.24855569449680098 -0.15590907449473498 0.18492828241007433 0.17977986148975711 -0.29321486930748769 0.14247133342241491 0.20548476972124488 -0.173013885039739 0.053653210988777594 -0.13577906321417124 -0.065650313861241372 0.019278599692415407 -0.27203392003219329 -0.19368780165806493 -0.15269687068542839 -0.19628134389668539 -0.20558148264102505 0.14490716482980964 0.1535434855909984 0.017822478497818855 0.14958126408807285 0.10941300426201692 -0.15244211983947645 -0.1259484879260899 0.05316483911070536 -0.27658653333875222 0.21932483415984824 -0.25169158878604331 0.15810897942506363 -0.19785539146992792 -0.25854686939545013 -0.10433614691669302 -0.13934784435841907 0.18068863457649506 -0.10562173909855208 0.10464558219389475 -0.041344574073050061 0.16844589851421329 0.087062058289198566 0.070800343337087998;0.078426193140080841 0.023920405483146792 0.2719782037524463 -0.044409749058321978 0.089212479992143115 -0.089438748089837858 0.31362503210586035 -0.0040568882586354714 0.29050837716866068 0.15926092884406123 0.27657934410608515 -0.10183425259172429 0.046993065092982254 0.15667961468860248 0.10724255797194829 0.22702186384259029 -0.0778871039552088 0.18545576171248165 -0.041240948047475891 -0.022040205067787446 0.03915258331165028 0.12287605875167548 -0.097490252672681285 0.13184816234192281 0.099543355990781734 0.20636942359066809 0.018106762317457198 0.07402282837578382 -0.030095750269178174 0.26969377080358958 -0.071604090941214255 0.26733833009462604 -0.0031283082417618265 -0.12432569208277038 0.032397652890763753 0.28814089024387513 -0.10936163412015878 0.23419079435316703 0.29861934882208679 -0.15369699917357599 0.16498912703353627 0.30356401353982304 -0.020040714811274042 0.27641666740666121 0.25413240020774508 -0.11135801349263996 0.24462658524050201 -0.11123829683371858 0.11702902791831968 0.17293846948026678 -0.063062609803237024 0.25452010889427884 0.1770000895375628 0.27428732578616977 0.048128430755131443 0.060442803975485862 0.29275985281235511 -0.14206271628231301 -0.1263995323880609 0.14705511666951709 0.24488355827827019 0.010464403297859755 0.14763062790632211 -0.015192923928571913 0.10600312104784679 0.27278411422313142 0.19547477655025383 -0.12542595554160402 0.25517156980864597 -0.04017321319390714 0.13687514059853104 0.011995802394941931 0.10679764150392256 0.21186226037435774 -0.12321543518269366 0.0089141231590405181 -0.12368372343106988 0.31857757545404641 -0.16055656366528154 0.02424135782207304 -0.10377819769627727 0.20822253941616409 0.35209674651367673 0.05322198817944835 -0.011813304837603884 0.11381913342488656 0.22653081830754568 -0.054494710998931675 0.31625871999290162 0.091282521899432326 0.29209390079979197 0.21149619991389745 0.088165523314686828 0.066963178092126943 0.2162170275153065 0.030162875346196251 0.13421236096206213 -0.074063197498443381;0.25877588220653841 3.4582557860025736 0.2900906727390658 0.091525830640130715 0.080347303329344685 -0.014656776545527312 0.069663248670033082 0.016985791671508998 0.020202030109501203 0.06584306415275086 0.026607017454599112 0.10053045894427283 0.024799871569947174 0.024021925657187207 -0.032133048203158966 0.056126700601199744 -0.0071477859985795856 0.0088399559117754954 0.090529713441360682 0.022712814096280152 -0.0049664396950338148 0.042027974538875926 0.016862202562696924 0.014237727146890004 0.068204444996737612 0.025081231570791715 0.00024928644375653525 0.022826711446095747 0.074368480280465415 0.099962612225207484 -0.017801965992840972 0.011667440294360698 0.051356413041913199 0.093760006334068904 0.06943991592555096 -0.027379822125507013 0.046982847021109643 0.072515418380719565 0.0036694111996231167 0.073010642736280773 0.017690067839561511 0.11928996191623371 -0.033434161746347432 0.1152748930330479 0.03371263252824408 0.028477606870789023 0.031732774051466468 0.089551376669681174 0.54883517340573496 -6.7275526367322502 -0.32051342867797661 0.034492938993240622 0.086415833429844255 0.062490382680107218 0.023717373966466039 0.047146503296177887 0.10220234147109079 0.10360671291821978 0.097573551008254031 0.036111625283844206 0.080616797173335156 0.1354447206255561 0.10564445083446865 0.061865547269848102 0.010111655594325119 0.057462122730207003 0.06620513116844412 0.063653432780608254 0.086159733895996737 0.036395140224421287 0.11881400047600972 0.006925544973627097 0.011457702858299432 -0.027857670268667568 -0.025944857960455245 -0.025475142764074379 0.089800127565086749 0.043722197211465856 0.0528937913315067 0.051282321720815476 0.035130140225518351 0.049896870542272355 0.084465308052146609 -0.0016999569111021478 0.051323443013906553 0.08390389504251336 0.022917817418703253 0.065141231603200928 0.00027629952035489245 0.064870633021273522 0.083115894790520103 0.067206708321569386 0.12091895764361356 0.061027460547339291 0.089246421780819082 0.012705106207857905 -0.19018493335985287 -0.54974288892561429;-0.13569264317315785 -0.17066869622217681 0.24155203924258256 -0.027703098300356232 -0.26437866881782029 -0.079566246986401676 -0.095562118735142573 -0.097758484858973718 -0.23032512414665418 0.23001540365233028 -0.098858912741407165 -0.0048286912065082606 0.013778143739214526 -0.19493401373140892 -0.27363097019190336 -0.23065383115965057 0.24304764339576543 -0.21970450397119504 0.1223715634305023 -0.16467030928555174 -0.041686730657437367 0.013335013587043084 0.058819751438899608 0.13317095265493914 -0.085417544961139499 0.24591970949029979 0.1266544589717743 0.10559856685426966 -0.14584285145268466 -0.1573176529433617 0.14877126136130822 0.083206110718540061 0.2089240938278259 -0.11798374917775031 0.047390386505053013 0.026048840004903123 -0.16921124313499811 -0.21979296382091529 0.093035373605475272 -0.042865752173115619 -0.05449694742788886 0.040514444310780967 -0.076095030543257627 0.11839340986428804 -0.15088069184083841 0.032582053952163438 0.18218460336523454 0.2227746288676179 0.18092509435154527 0.16332310824017285 -0.044321111026675936 -0.028818656390696699 -0.22773637848207218 -0.078723815590054522 -0.19198045149009241 -0.2286375364280081 0.092764082571017703 0.21530127837812579 -0.12618976717591934 -0.079114702519787639 -0.1686638344253937 -0.029669710568993483 0.18791418901518761 0.22207285446071143 0.031491800012495304 -0.17682210515112926 -0.13010706164754665 -0.0020444777134739148 0.15198056863223502 0.21060424969046437 0.13503216229024037 -0.23854462804403145 0.030066219358145976 0.1710426397249579 -0.12293502213235241 0.019464580844988127 -0.062694644214342538 -0.2281964056309195 -0.13825075348244673 0.054737220191070843 -0.085677784062641024 -0.19397902007835832 -0.033704717406898232 0.035043761687235511 -0.24173764566715814 -0.15804487623666305 -0.0053878585062591862 -0.18618382157745925 -0.16304980116978343 -0.15343611184298347 -0.11168292130281592 -0.065120934831629076 -0.1031302019102532 -0.2086904154919598 -0.10220608465183958 -0.097411471487337253 -0.0031594061364305583 -0.25110543679369896;-0.12053948030790364 0.18105254747065452 -0.27100671650221975 -0.29178646469598585 0.14883925676835383 -0.28553417634801259 -0.26358793086920418 -0.066549003219476877 0.037935914736968813 0.17817309145257523 0.084157053317914329 -0.052669785304858413 -0.15135588440764772 0.090830901964498556 -0.11964450759673396 -0.27360422073016016 -0.20379887302988692 -0.094695859972651994 -0.18692931186122341 0.077180145593494884 0.17716053435800472 -0.096443263714944411 -0.07296690538502397 0.15143363226853238 -0.00099362573199375092 -0.17979869088537362 0.03716409240970027 -0.22361728676667955 0.12296847899960672 -0.28261167176008961 -0.16869757254922405 0.1473103453461844 0.1681669700776787 -0.22875976662498557 -0.10942344878444817 0.16128403773520428 0.01686457677054198 -0.26165369555541718 -0.26565012537828225 -0.23384541219175978 -0.26710015698072154 0.050745329228679734 -0.27259064756867724 -0.11468536294579236 -0.16722409721873555 0.02238948818987543 0.13256002207952952 0.038757225052414641 0.085054925285099892 -0.20517342138819986 -0.028143623646406667 -0.24444278158191021 0.05436025767905802 -0.06979318022585744 -0.073758102626645616 0.049219820838597189 0.062150741688086597 -0.094388671693961632 -0.068610359784163369 -0.1304998618393442 -0.080083171262252686 0.060700871681576458 -0.18779588448200291 -0.049173334018222645 0.022482588262592786 -0.17019953090680656 0.1841924555220889 -0.047012294219386089 -0.090798438763479788 -0.045714816663260376 -0.070977499579721784 -0.057298714435513994 -0.2112206073187744 -0.091700402443633436 0.10285546435757177 0.059154520629564097 0.036032231268785457 0.11224600336016087 -0.30716760747775734 0.13238129165803078 -0.01688215072690705 0.051946259566850832 0.15989117379337814 -0.16246701748827069 -0.11603698318210823 -0.051191002705757077 -0.20637273984526669 -0.0012901123167850079 -0.25017600041431354 0.046021600207776459 -0.11338114780758866 -0.092423653294922067 0.1655010829062028 0.18431903691068391 0.018217586173627849 -0.22730928859099733 0.17714469483205089 -0.156910305469912;0.34281657063429355 -0.31593866509763741 -0.13519368192745368 -0.0064139862567514864 -0.17808443024804294 0.33846132160722764 -0.094020133981912238 0.18251119906230706 -0.013539183603183595 -0.12910741825899971 0.068471072720794002 0.019746985512555441 0.084871734204034474 0.0044928645473435716 0.0072304180502659604 0.12877478485698773 0.15208035885575641 -0.10436360331119666 0.091690800430290723 -0.035668855674944752 -0.010692945197332758 0.059717017491987441 -0.04206966202664595 0.086959723682637727 -0.016711389115002515 0.1330948141446987 -0.013593268187238357 -0.0036493729777896124 -0.045237212286582111 -0.01355829919063164 -0.056059847547207262 -0.012325774933551456 0.15669077134515397 -0.011491167626369011 0.069462318489078911 0.011518505678470146 -0.05651693881493728 -0.039767939168098149 -0.0015487698098946992 -0.083397398681517729 -0.064316447816062619 -0.13266723386972781 -0.082407274006694939 -0.14077290436346918 0.0054778866584859745 0.028227026744522498 -0.17515015351784738 0.11869534412287018 -0.83538515198135543 0.54354049509107094 -0.011593916111237272 0.041594240261252628 -0.09463162795067924 -0.0053699385131802 0.051998982948244343 0.058907078074953829 0.20800785415085768 0.05559670596520494 -0.10721930777461995 -0.075243239866362985 0.0051073514620472125 0.076506672261565184 0.060295845746764117 0.19827801768956846 0.17349802816943308 0.019481529496576108 0.021510894468023452 0.23485302635087379 -0.048849109010045848 0.17485665514167065 -0.052649639615159213 -0.18973745671107795 0.15893937305774453 -0.075730948141321794 0.2620983398976206 -0.028540491310069555 0.26010361029107237 -0.069171843725247067 -0.099197350091024705 -0.15635412994835293 0.078287997769291628 0.12131644570488585 0.21026713994279742 -0.062197529587366705 -0.34388810986643564 -0.14505452594639673 0.0138805064062441 0.071595009760225342 -0.072159824460107186 0.025881021665852516 -0.05207082722072446 -0.016949969914521884 -0.073802343663160963 0.053401854895397921 0.060855379164642447 -0.012753858339352407 3.9816780283391382 0.81676717610281158;0.16171709056501668 -0.057874954522323559 0.25738777852271905 -0.18676846275432138 0.080338084721575373 0.23108534113427659 -0.10836204695441624 0.051869090264858593 0.10946623694676197 -0.058913171799696851 -0.070184239637719276 -0.10151404424327796 0.041814938921923013 -0.0404676206754363 0.038953297862185085 -0.10112031599586999 0.25356909711700121 -0.06082689659270591 0.24665791218968874 0.2782689275786342 0.22968882354882961 0.09281051458192599 0.20403245526478628 -0.039984715916111156 -0.11466010162495312 0.10962805447531916 -0.14151331922544644 0.13405796754156457 -0.11002546666684122 0.089044922293988568 0.24324630862522539 -0.008868385742663876 -0.13198177994544294 -0.06229457857332131 0.13759396489188644 0.07174916298559908 -0.1269470735003892 0.039554360295895506 -0.15547507021875931 0.15746024508268372 0.24550703652778227 -0.10698957200230062 -0.14885898748518056 0.081754101462406359 -0.045766632212260107 0.028531042189265058 0.18043431280028521 0.19739297816809784 -0.0049798809145592234 -0.30765245350531734 0.11476483148464368 0.22076437450098402 0.1000590401620846 0.27046997962874142 0.24101928281099164 0.20972907781491096 -0.08063581654630618 0.12089215370660185 0.031620544435100865 -0.066024917975271685 -0.010186662180068196 -0.017000405033649402 0.062811612489626606 0.060339978482181589 -0.15051820864167081 -0.078044905598537148 -0.034361986989853682 0.32509808940856644 -0.08263738660916535 0.19563062038551171 -0.079142396216454469 0.2925498736484039 0.21633831880210078 0.087115066425380652 0.017805049266973627 -0.10816723506958635 0.031403917391410102 0.12768146308131367 0.23415327747593231 0.11513110073131071 0.29440517728018023 0.2284865610188985 -0.12810646070401827 -0.010758851691924136 0.10116486480910304 0.25561930604067729 -0.00071032191232096409 -0.15891178498671785 0.10200026058959016 0.32134033150354807 0.038646806289134895 0.24526438670380335 -0.046149161367941283 0.09600838543472473 -0.14750528945834879 0.025831601920361671 -0.14033908515063748 -0.086117538086928791;3.3637404923571768 0.14763043813351923 0.1048395528317675 -0.0087898920278630371 -0.0073754156740646858 -0.018674857740652494 -0.019864188432169964 -0.0038183663290319572 -0.011581171031731232 -0.02313079581102168 -0.099307420942563715 -0.039954239455786043 -0.056050013219441447 0.040819803426696555 0.037660503096917257 0.061489412928419196 0.061791135002698144 0.050466082917513366 0.0046838800152889486 0.12115918164098623 0.018315614618969221 -0.027060257414141115 0.060158942941732851 -0.027500348401434886 -0.045555037698577251 -0.073514947618618279 -0.065930173207640858 0.082591140326858159 0.066553132237613277 0.084716278727326289 0.001918763824466239 0.079126918640829727 0.014092410857937865 -0.011370678190162208 -0.065013865325850781 -0.056584829544090248 0.017125143263613359 -0.036799568410572234 0.044564947037029234 0.025326723984998193 -0.0053011412564441373 -0.046729039271724684 0.028642700609969707 0.062084981339177128 0.002028345937459482 0.11202723291877877 -0.08219274422997469 0.044170887393355854 -6.4218086802166381 -0.29377336444502672 -0.15412622531715359 -0.13307005567187546 -0.018586640602898972 -0.12416451098019848 0.063736879042867539 0.023231103726931476 -0.052710572723315328 -0.093610590775333125 -0.055991746094056716 0.062401742675987124 -0.0079600491526163678 0.038863263191250351 -0.0052037806077381574 0.087491673481969442 0.0085082481091566069 0.14234784957029409 0.12497253907404957 -0.066414640131346736 -0.082220540519749613 -0.052518595999898741 -0.017838492051753092 -0.011165501568800067 0.050109396741761958 -0.045125101465156504 0.0069744605237725809 -0.019470119195526894 0.0062486752240954657 0.0071264116343503292 -0.019326523398885003 0.0062770637242914882 -0.005422873375417264 -0.02473884819830701 -0.11696562303533954 0.046500081400179319 -0.03014249470816676 -0.060017928295991722 0.019575152043188916 0.0010007727986688507 0.0011040920879114642 0.063972272520990567 0.015968932914009512 -0.090791366595359344 -0.043460481459645248 0.010704752446655117 0.04564066857964718 0.0026479296088083039 -1.5929107601415813 -0.35080521702058182;0.17923984677856186 0.02130524505376253 0.069568932259293309 -0.010487565913675849 0.17732115034293308 -0.065452454890673306 0.091717651872108938 0.27860024695690211 -0.059687440452570475 0.091514365217820803 0.032079398055851985 -0.1399141253276262 0.27386579150644474 -0.18759048190615082 0.28423983766327166 0.096545364078791301 0.1653383142786633 0.13655043022944793 0.2290713303549971 0.26435223924773688 0.082740658805586134 0.072361133562021729 0.093753833091532374 -0.1899156976679873 -0.19761221350971117 -0.013199493066436446 -0.11720431166157395 0.2044333387142506 -0.068514396761179444 0.12574640559021732 0.258002709765424 -0.2002322663280566 0.11645625652109449 -0.11883037956547007 0.04328421250046021 0.034246752678570781 0.032282476754134461 0.13803596333379364 0.26581528681242184 0.16173909388971117 0.27032055583574727 -0.17579278232761886 0.042910021955356988 0.0040490512344721159 -0.048924288034324366 0.26816460838571016 -0.024869068205090779 -0.1006974839937561 0.12185075848484808 0.21132283618573858 -0.081912458719268694 -0.11821174755212276 -0.050200288167348305 0.23316200856575356 -0.042252555845262656 -0.13483925688124154 0.22316838302746608 0.13933422714790913 0.25861404393044596 0.11919202200189713 0.067423968948696164 -0.098137709189152253 0.093462287522241019 0.011817781623636843 0.13992967514403501 0.23879766371375705 -0.16328051012528563 0.24624812659517986 0.27296346115971709 0.058955258862004055 0.14379356871071353 0.13681884239046183 -0.19030771745162553 0.023979321243231426 -0.18704923581257291 -0.096136764870732652 0.28085633413910882 -0.1152829548751296 0.21049151290355156 0.093244844249310871 0.22072667873128252 -0.002110879688169053 0.087684919539520692 0.18475554277976697 0.16865487960494169 -0.033697730767426513 -0.16502042642773751 0.18824130402814954 0.044890429329345637 -0.08014177930184016 0.16735626509650794 -0.052556829804151974 -0.12334392081963678 -0.11854936037908602 -0.049071787927835259 0.14455447192114437 0.042119292935862335 0.20046398435826043;1.1346602318818579 -0.48701446972238638 -0.054574413488824289 -0.0074073470044402397 0.075160283841535752 -0.16001088980246575 0.041066521930086086 0.062862357201795033 -0.049345612816406245 0.077116012302953563 0.058890269029979736 0.10950872768592336 -0.076207347626496669 0.1777807204482226 -0.13685699723958697 -0.072429531818432924 0.024237601660427304 -0.29069500200641402 -0.00074738035323106871 0.080120486762819729 0.0092328327125368714 -0.12449382679408628 -0.054968188634391763 0.016988798309125804 0.041456249767274543 -0.030918357460367626 -0.17057478178941252 -0.12412129834971067 -0.15569419720299246 -0.13733131222897108 0.010919896389740459 0.13862055718638772 0.078536467117415396 0.071002938563544477 0.056009088696073336 0.078978965236423532 -0.13187660026099585 -0.029378786353532235 -0.039931916100340685 -0.021348975958523128 -0.15502860459512766 0.12600824036098246 0.13059431960389375 0.10430737286638332 -0.055823447270536314 0.018079004771501782 0.065300806021737906 0.06095306334086973 -0.80609410820904392 0.89852446897251859 0.23345989945754972 0.12622491347042156 -0.093379508844943046 0.0051408641433963757 0.098237764366393518 -0.0068327756986448036 0.043544818797098435 0.22445660000425668 -0.1932316112508855 -0.032965859449282146 -0.091532314283785304 0.23105832955594757 -0.12258230785231233 -0.0049135904253926384 0.064787473391581418 -0.024063292802533703 0.2445611673980472 0.11513231678244457 -0.014057978789374721 -0.0010662410655014776 0.11000355131829494 -0.13630289444670859 0.04875450742399056 0.025722444563841845 0.055181207973341445 0.092046022903159219 -0.020982272900446543 -0.1930715605922983 0.029019297320832114 0.0067053481341265396 0.028275899178932164 -0.032767539257003965 -0.081809410465867094 0.056115766011420522 0.1898171004797238 0.11312168729749182 -0.029486457054397078 0.092287171427731005 0.091153495399977719 -0.052279223289550369 0.037040006819011387 -0.024025087057560162 -0.033540701775892467 -0.074922092740826299 0.096168487806724878 0.057777332448538533 0.68205660964747195 2.2445034484361539;-0.10568274036278955 -0.2304981116991941 -0.20330345030582261 0.10708447100078208 0.19863388382191746 0.026908968537922396 0.14031052584841858 -0.17897802110307093 -0.13245122556347114 0.032888477787172056 0.13213142625401744 0.22146176356687675 0.024095079807239673 -0.029652259647614164 0.18774500244720485 -0.042283978201853041 0.17641490779246813 0.050897105836082229 -0.1475450504582882 0.16941390287842376 0.17752748477784672 -0.11697896180062312 -0.10652186358498075 0.15996379037535885 0.18278028777060823 -0.13663328469048411 0.021609490223130551 -0.1423868719629745 -0.1834372448169734 -0.26152873025284823 0.20376152551136612 -0.1762547200019057 -0.23307790678193199 -0.014772053106772393 -0.15899475344837452 0.24623437699951334 0.097883157321649719 -0.018903841989913791 -0.18808692730499593 -0.1224443778444845 -0.28932198294370354 -0.019602463870017964 -0.18394550462934756 0.065874124529454903 0.17342373577091302 -0.13608496779026133 -0.23409213760439976 -0.10785351466547199 0.20914945981546551 -0.18480126629958141 0.26867196604002147 -0.2563898054660726 0.13435114401893755 0.13231247336263605 -0.027843910067531053 0.13658338820415875 -0.026974560586962376 0.18733057066946013 -0.064432831705057411 -0.26595848454907867 -0.012110119098203217 -0.12660454784390751 0.088936768705347058 0.11024118298380516 0.15414155746797256 0.024605298610490108 0.018894021992369548 0.14032173771356599 -0.16302866088563933 -0.20656185454555304 -0.26170748359948059 -0.011042617460461821 0.025792162572573947 0.1869672841844679 -0.079477249706131722 -0.13560846703603457 -0.19454198235656217 0.11334400202204437 -0.088522951184618698 -0.14564681878031069 -0.099827738353028495 -0.033085155307856551 -0.16100607215809837 -0.12385458401024969 0.11266752436041567 -0.066083369492030114 0.052926961556515578 0.043380697322796084 0.024395748054880064 -0.14591949670502363 0.21592182804605228 -0.051421999341542471 -0.16743334385586534 -0.18177552941938002 -0.058357079548284854 -0.15886528126673657 -0.16769556400952665 0.044706110302063944;2.379282384651721 0.12180219976714173 0.3419235642006006 0.12431560638338476 0.23756611195234553 -0.011035962456801876 -0.044118494281511218 0.001319953515736137 -0.069062269490409403 0.084915417344431018 0.012658177666015985 0.0057931018443534016 -0.062871910118697083 0.040743404955801928 0.11735023378670781 0.018496029974233868 0.012840313555215227 0.27132089528398851 -0.067579253352659074 -0.060623829717405056 0.076777468903749813 -0.058067928562179648 -0.14476355286673881 -0.04435293954405356 -0.064065386579859926 0.12439484663705948 -0.041809475722061618 0.1135724801478967 0.16891850517801213 -0.13862621798794644 0.039193205005445188 -0.12863454075828248 0.019609698643935497 0.030934690811492607 -0.017069946455630154 -0.09311185760294724 -0.057376462166006698 0.05487961838400237 0.22582488608400994 0.037328467793818647 -0.021733843258596276 0.0046774420984272147 -0.065002853814179098 0.037373764763661596 0.048385170736235474 -0.017443479788284515 -0.035695342347807947 0.093738541343664564 -4.1932030780067944 -0.094119171606080354 -0.23470131266248218 -0.22125952737575688 0.027082050741280228 0.06126197799675355 -0.032099352520119397 0.07445473472234658 0.046302715804876847 0.0091133543297770986 0.14109638724323231 0.026583294099092578 -0.068842615546604632 0.0062382443672246816 0.00086576560982688799 0.095324141102219262 -0.087868959824944692 -0.021242428966647773 -0.063058931204253016 0.029222247615763274 -0.062689509662384554 0.19553639408639681 0.062778680265918943 0.14567558258473484 0.052197923672676297 0.033914708764136145 -0.077617481321708967 0.20679747772476884 0.010400105342095775 -0.18041021706520521 -0.1064339380718556 0.077827547221085785 -0.013295007763887432 0.062147140396310196 0.14647977049152738 0.081456622715466803 0.026362653180149322 0.081312546857262802 0.0088495030417091256 0.10445950161412762 -0.0093200414913227631 -0.093089449647079908 0.058759807380338508 0.010819341190122345 -0.088586791308634269 -0.068368283879481712 -0.012264048421125792 0.055852231823201648 0.15139929741452721 -0.63654064326349891;-0.20034530227259609 -0.25921249913442951 0.02712158218821006 0.0059243676690689884 -0.068482057227513202 0.057727402424884042 0.11970653982906158 0.017933043965995092 -0.36114818882081551 0.083952032022012776 0.19311140983194924 0.097464932757941838 -0.1379177054198423 -0.13194323990247889 -0.14461124660785324 -0.12143948893000761 -0.12467821629845766 0.086663460948692275 -0.11077146028294865 0.12331080491966132 -0.28547175905175032 -0.079139183483454376 0.10116835041823624 0.03180848790899201 -0.14041245046629988 -0.21719371750587077 -0.14933822800958355 -0.0087740098670314251 0.20170430132112813 -0.23989472055115427 -0.10267175373315955 -0.13410400853358839 -0.13868989348306032 0.13292836612631317 -0.15280109139844575 -0.042702970436176893 -0.030725318501828591 -0.18665299526768922 -0.052820959472196463 0.0028299961441278841 0.11488851186966678 0.10357783144937015 -0.20573823844705943 -0.1483792286847628 -0.18634418312129075 -0.21235807638085813 -0.0063235996364202438 -0.095189433766016823 0.074446665375630564 -0.095427600640996257 -0.01709255680978276 -0.051621247149183994 0.029220902312360665 -0.21377088680356199 -0.20099191202949693 -0.16969705071951866 0.061321042295508839 -0.02666022819453321 -0.073896810918604117 -0.19088419150217004 0.026251947646639268 -0.18199006906691501 -0.30457563917432912 0.0018682069282350076 -0.30828745000194901 0.12511030647999005 -0.031970840033104173 0.12943277177074552 -0.0446038559297329 0.14015406905582112 -0.12345240704645612 0.12716532870056707 -0.17178768908326733 -0.099585101853648841 -0.19350341250392095 -0.2070355199689739 -0.08785946925459627 -0.20963492149444024 -0.13230209743551496 -0.23021349955715564 -0.1087825330678641 0.11677887479708501 -0.24396933317581868 -0.25348483224183954 -0.069872436892852927 -0.17233251495467716 -0.047214933132845908 -0.28783304470540338 0.09877843914163506 -0.12518820993114094 0.14494152556384177 -0.029284755764580402 0.126695156903014 -0.075362691768033646 0.0055428157160502889 -0.12097174429747115 -0.83356755207834621 0.20280767027878061;-0.30236950425453574 0.23802410640624358 0.26887397693565934 -0.11372176069357884 0.039739171910773842 -0.078870883578753784 0.057918857773769108 0.080566504453094295 0.01206275713238106 -0.044492519175482276 -0.30667919674761751 0.032040740134409058 -0.28928640854844251 0.1150493578664121 -0.2750669368229271 0.0033416209065380972 0.037320789125684234 -0.047874312349933591 -0.22870905745176492 0.060860938756864102 0.19359155936851136 -0.14703767349944097 -0.0064347762876281857 -0.11849997238596363 -0.22997947808350691 0.19927972183609807 -0.0074141542080123557 -0.31335583903478498 -0.13123582563557132 -0.40702730190078407 0.24095314309425628 -0.25223132960929245 -0.25245363326586678 -0.072632520986963156 0.37766539985433423 -0.12513237847102118 0.010042371223335343 -0.11693511371874143 -0.091678493905526792 -0.085344267077722427 -0.32573924326669518 -0.0073707753986176324 0.17627907387292158 -0.021150762025033718 -0.068467604650385774 -0.071060772226841984 0.079668290558920177 -0.032385974951439647 0.14185923289172317 0.14074134483741599 -0.21603850308188807 -0.11688050094388161 -0.15763390800487162 -0.1900130769571374 0.0042580671222607865 -0.016981631754364474 0.052449451099093006 -0.077136670819414152 0.097958391207888698 0.14591128890353741 -0.11384951903115384 0.10032348574933528 -0.026033485582225752 0.04822348117632997 -0.07618692961089607 0.12103042058292272 0.18854699713151477 0.27104259607718528 -0.23878917886208462 0.095450283596045599 -0.076085136420358496 -0.14612086849889794 0.50092675951033161 0.10353806431630874 0.095094079665906397 0.19582832757432697 -0.26746325113695002 -0.17298258213288673 -0.12612320759501791 -0.14281780228982718 -0.13253793683535497 0.13230825609918495 -0.18691753430559524 0.12113229664317283 -0.44878999079179072 -0.28962022610606825 0.051215498389048666 0.10094442326689625 -0.23281824896487002 0.073336319524718224 0.046237995040963105 0.26563551094084387 -0.098400677543476173 -0.27936743932494806 -0.14503811430471913 -0.17042228836441228 0.17115271430200249 0.41443678812134016;-0.21158351420476479 0.15679444940208129 0.020457383120589773 -0.186475035300501 -0.24623530860487786 0.17365667212814778 -0.25933772391670573 -0.25867824202055562 -0.089763307394777656 0.091085933434773197 -0.25077886292400103 0.049046670163717242 0.1738094524964213 0.11963963455837605 0.010545162385246066 0.0025690650242472927 -0.16894926781343983 -0.12583601892879856 -0.22706159638781284 0.10578834023591671 0.080959359786008545 -0.087437827206287538 -0.088542549683594679 -0.11693756087130022 -0.10794399380770128 0.12328050402063312 0.092677645570907033 0.10644402889413078 0.18210720250987733 -0.016657450147822103 0.033307878869784271 0.17115990871354722 -0.11781830999901875 -0.22162017356289609 -0.24212381081672918 -0.020748237737882862 -0.068285967962519734 -0.24793183563182428 -0.014916109898928285 -0.22598156758185967 -0.13488623513596298 -0.043511555814279096 0.011180326035260899 -0.16379562930248801 0.10688505368314302 -0.063755550703091898 -0.18699762483555585 -0.0036100261277210435 0.076096377408928245 -0.19061643705249004 -0.13825559247367541 -0.23950899557354258 0.075183180115807463 0.11506632373897664 0.066858867481803697 0.064440967819959533 -0.12110842092164273 0.1597012851283425 -0.066852007475744948 -0.13174556868619564 -0.25378593098377117 -0.10516579414841094 -0.15484623254864624 -0.11293826015329381 -0.19705266337745664 -0.17679930914628622 -0.17789526761526903 -0.27674318529581748 -0.24982295041257171 0.0053438139652171182 0.1141398106449471 -0.10876951196938132 -0.0084580626659485503 0.14680461762124006 -0.26634068207911776 0.1407787826620239 -0.18879513382995333 -0.2053659108152561 -0.25522073563187864 -0.26289869662991722 0.16677832617776994 -0.25687599489159402 0.049272410716857215 -0.26529446609370005 -0.17240472936284765 -0.21930854921348564 -0.087463552479002074 0.09180170800022365 0.13495571252508173 -0.21434525917428096 0.033805595158401085 -0.0079743718421118881 -0.077199501329281328 -0.25860642078158191 0.16317137013999905 0.07779925509137009 -0.12663812844357503 -0.10488853058450248;0.28621717159688492 -0.11275793584353314 -0.44970476871758325 -0.21923242037978047 -0.025650355049360151 0.00101136778923383 -0.0076234452697342241 -0.046605777869068069 -0.13409114870834307 -0.24707435771884914 0.074480231489016752 0.15891208346023783 0.10053406082119466 0.089482195567474679 -0.022433806930272152 -0.086559989451792219 0.17464788605353215 -0.146795226897109 0.016626989720185753 0.077664920280963112 -7.522923762731177e-05 -0.12513163451671289 0.042479548484996188 -0.020143048688928834 0.23456835644680224 0.067848476886331374 0.0084990956144362084 0.05212633840876716 -0.18496142275214816 0.066039521521649505 0.051341353849938882 -0.15795556457540802 -0.15906883701196844 -0.0051478258659546734 0.14611326272645825 -0.14339966992834843 -0.027083016670994615 -0.033816436504240127 -0.19046018707207243 -0.010809524339562688 -0.14256945544874405 0.011446288737371453 0.13622798945528677 -0.065393105647784291 0.03079170524062325 -0.1494961855195634 -0.050691180557452274 -0.012669679165250813 -1.10500002551927 0.37736712439485087 -0.069087081020056909 0.26460550014212614 -0.10267143162900667 -0.31214175358738661 0.056610621321648631 -0.057009105600190298 -0.036290969566877142 -0.027711166304677043 -0.1052510142830364 0.073709251709191029 0.058636340877460759 -0.011014347251902978 -0.098415004974579487 -0.0030216839489470636 0.077858407688097098 0.28206763725080652 -0.092715368193772324 0.055079900447112952 -0.13983932563286378 0.14139425528173619 -0.15995702281928917 -0.18444373085595339 0.094231467525436569 -0.15658740268721347 0.18941755750686345 -0.12234047662219605 -0.07208304352038683 0.082515721110025489 0.083104894591652406 -0.16954868860487657 -0.095598869709976192 -0.032818662034010945 -0.14689768767565448 -0.0081952175796406838 0.040330290762256325 -0.094326102693768024 -0.11688680674735981 -0.18172123182802796 -0.1561233479366391 -0.0078390371675065712 0.047503950539197273 -0.10803891454377837 0.0097651585519780097 -0.088059198551484821 -0.0031293290900903498 -0.16300266483874543 2.4471817509313545 0.67280046533785631;0.20119351104012442 0.10960332134639858 -0.025409852935105996 0.11833509655840738 0.21424325870946329 -0.20364277709619383 -0.031066534233397437 -0.20609405943820375 -0.16840777786313854 0.15449664629877496 -0.1252649177654491 0.15174962443251758 -0.060655957080383315 0.06167272208766153 0.12619129456886757 -0.033058770609539587 -0.18375674599140265 0.12247375481814222 -0.1186522646533015 0.081540453555740466 -0.069892462002525996 0.17349854122109876 0.24113346331716887 0.05869466689337105 0.098955204886543496 -0.17476878015288766 0.24965396364881659 -0.044944962670399158 -0.14844237068566091 0.21988707661443238 0.2502621528127546 -0.0039170482172603124 0.0033719870761954093 0.24719674385968679 -0.16099717998476828 0.11011090874719584 0.22499023185210143 -0.13249531508299506 -0.0093425938418726633 0.15524371123593816 0.22850978125892457 0.15212054632001265 0.21179022220947072 0.0087421986032284911 -0.12704876327128589 0.039184080593816333 0.12776634614563695 -0.1575088545707421 -0.055471556953599947 0.2162581668299644 0.13231596601459644 -0.17435430168013422 -0.062063856058178074 -0.012084623876103038 0.1732707266880214 0.11708230413781344 0.070117455575455248 -0.18998195701034887 0.028639176934686188 0.18246922542311073 -0.14542682627861836 0.16888277047629655 -0.16463903827769005 -0.20090562447752203 -0.084290136849109007 0.24878608452052423 0.1433262848612232 -0.15378907711831466 0.15588558499124885 0.189720893437687 -0.041820719901825829 -0.13080470297516286 0.11465811950571816 -0.11227424133912796 0.14412104788902191 0.19951782585835115 -0.10398108438615726 -0.22363234736224824 0.03494858075631329 -0.060668631757424894 0.2301204303956379 0.21560676482338681 0.18317693097475671 -0.011063157159900314 0.11655706769467379 0.21678367533882789 0.12767379355218844 0.029079840872135228 0.084716357685902841 0.065571738509642166 0.14045113452771993 0.17483023083057644 0.16971794165052401 -0.050775373547890718 -0.21341622195350191 -0.032290689645762566 0.26820334339340784 -0.12738380246312178;-0.28152512777266653 0.1695850801742971 -0.1082312625716553 -0.031206498360913684 0.16942257980094122 0.13248965106479185 -0.27181192336077448 0.093017588069570376 -0.18649392517286048 -0.0014149436602488735 -0.14017313846499674 -0.095078193231028577 -0.063841068300888607 0.017368537120617054 -0.038781196200241674 0.016387437757385426 0.21055100290689072 -0.050128166712808966 -0.098512697606027516 0.063502298665540538 -0.27674506687355444 -0.053311204743930848 0.070989931909899759 -0.2527146613505592 -0.15652254578732991 0.058843219252118523 -0.30578735754557279 -0.11267339720776663 0.17066242708309662 0.091889755933692197 -0.22952112403488911 0.050257071812880284 0.057213084918966213 -0.18510562038798822 0.060359495339082504 0.0065931972519572566 -0.090031248629620086 -0.21079289630498621 -0.067462827343335821 -0.081908449887211354 0.16092695487305728 -0.084327924519612255 0.024102438294720519 -0.22201820780208736 -0.1464920013227492 -0.095076528612945396 -0.11775819179285962 0.16878322735485035 -0.18285490828110634 -0.15867133831259683 -0.21146456812073214 -0.17270222120879902 -0.081131743756901242 0.13480394254748659 -0.33115145648765654 -0.21618793326103133 0.042722128868424879 0.19694919074244954 0.1195662337429569 -0.25336366376706859 -0.17977247163825785 -0.13195950545898033 -0.24504313562512339 0.055905344790710985 0.044397122609125615 -0.13736818818467147 0.029062488298083843 0.025690381387391922 -0.019867418036002504 -0.26535879055377787 0.20391568239568258 -0.17082727336377926 -0.073939104582049484 0.16146955986162836 -0.19555355283879372 0.014690862324506218 0.11602181914062933 0.1963706375931735 -0.072369306491800442 -0.29012793537157971 -0.19382348361279469 0.15997533856764348 0.024393051659926963 -0.2515591049591363 -0.18684688967537763 -0.17162195843917197 0.01582971637729453 0.092803425205067264 0.059618337567021021 -0.082082623516254519 0.1523104512859963 0.017621245800992825 -0.23160656618411096 -0.1343763577451815 -0.16517534532591893 0.13742653094524762 0.16946970275305945 -0.20551559729548449;0.18183038400310422 0.18984372424481061 -0.065268779729994564 -0.017852506580659407 -0.076231816093472973 -0.086634235032548274 0.054715585491568977 0.10050606047350935 0.038250316960231574 0.25625669246253924 -0.20803866578324204 0.0015024897236538236 -0.01994003614679608 0.0021566591241132249 -0.1589360223796647 -0.12112938478135803 0.26222760921984589 0.27867825056425283 0.27344207794781938 -0.015608716191583922 -0.024513020930053545 0.19171993516464528 -0.025928421020041392 0.22770944017398206 0.26347872700487618 0.29183520500228982 0.22999948919643953 -0.16816504915194558 0.2615836457283669 0.21222687661506065 0.064894056008130169 0.16026290628131862 0.067962773758207487 -0.11220105684753139 0.26635565931553928 0.14485074765915054 0.2106778582908938 0.22668179576566616 -0.1944655522699657 0.048078557719009297 0.066051273504380337 0.19448567869756128 0.083447947428798089 -0.098792024719865215 -0.14687833035226394 -0.20634179974101677 0.14911422695147639 0.16298141836591715 -0.054506456622542311 -0.004071791144986658 0.23610658419292296 0.19009982877145126 0.10805619990573001 0.074769232232518912 -0.015383872215721638 0.2778171662679258 -0.064498739190352428 0.17030813390676461 -0.14099755146284904 0.20298719611855959 -0.016887025568890532 -0.091290663670572453 -0.10105648196580823 -0.11972645236943652 -0.11239482055427179 -0.1373767181040042 0.15251705916056743 0.050528757395320249 -0.075073286213265991 0.10028056327995427 0.1208674718912132 -0.16249703817837707 -0.061393475271160257 0.0058389134494119055 0.02096215199504918 0.18752564145885597 0.1393664525977884 0.010526594650056464 -0.094694586998839703 -0.17899788514510309 0.2343858947469499 0.11682955432940012 0.18562485229161879 0.12769309448389479 -0.020715307070196642 0.085563025265333298 0.0080019449325674785 -0.05358006817936669 0.053873994299733885 0.17142119408128176 0.14237685238243011 -0.12064432498633322 0.27531299060414899 0.23288891998789327 0.045238975898859182 0.044303537995005061 -0.21382958344965589 0.16067722660913447;-0.042093632998649912 -0.13925650746025453 0.024064859886127773 -0.015227471885272023 0.074391711514549763 -0.10985091335626564 0.16895712039608568 0.29583628437476456 -0.12586705056527497 -0.036620635378844392 0.036766086339817997 0.17746810704985616 -0.091537765314276556 0.028166328877989491 0.16216780047277407 0.2521232883851301 0.17105371953873064 0.27171533920193758 0.11645873902141735 -0.080551539216516893 0.10811772596163544 -0.060040199401540491 0.25113980120550927 -0.068077820843997994 0.18867639106474263 0.22236935211418868 0.21488817319454412 -0.043406565355959381 0.19715189060726024 0.27477454515884187 -0.0329929448024638 -0.052743341799968542 0.024521950620761988 0.14329463413726956 0.25145941701718022 0.10177282594026385 0.19573732074074979 -0.13584142812987932 -0.030722570224000361 0.21841069223070561 0.11986035406905224 -0.062987648554296297 0.088501781001183125 -0.16179543021852799 0.2031918672626519 0.24265643264468775 0.23849779496952295 0.022043468017118061 0.36400670828617399 0.089452347209863059 0.16908997752023219 -0.069688056157638428 -0.13333932617386235 0.17311474256647477 0.21567838632803171 -0.035849306555687535 0.16379100086535384 0.30095310958988103 0.11177178471978101 0.1304822289106245 0.2036417640434377 0.18805515709517304 0.18013418236532799 0.16675495092427417 0.030155750764940627 -0.11885734104096658 -0.1941580623178826 0.049088337908498238 -0.088425544191016517 0.024573805876005484 -0.14231195424357357 0.11565690106473507 0.0048975484406818077 0.25739475254235306 0.067032870053239366 0.29643461751741657 -0.072332012440505813 0.29102135949572183 -0.097476324422858529 -0.15297887753982603 0.10687066222165291 0.14716289352822651 0.039604231475759658 0.22480397527347645 -0.045449562471928676 -0.089176121986458787 0.037851545959283056 -0.052751632347959869 0.22550793840329156 0.078463849507664385 0.24735470994972755 0.18743350324551314 -0.064065385076903472 0.031224555918032682 0.090291778348967122 -0.05316189384192805 0.091847983385513823 0.12831337096170006;0.16100102318264981 0.071588863700118507 -0.21394824761954012 0.061123773584961051 -0.090723894814431633 -0.15113491117343167 -0.15847884388008551 0.13376910938765449 0.017223354416179944 0.066846652172412757 -0.16128177241339384 0.35465337548761128 -0.15204990676276575 -0.062314095111643389 0.25929862189444042 -0.1993321463215286 -0.072018879445681458 -0.14169567561701474 0.056791266668947522 -0.26940242175652185 -0.1868241488874868 0.14505070960126512 -0.31126543669846723 0.25912624256879563 0.40115772891353602 0.12795804315967235 0.018990506645012714 0.20525105042698816 0.0038940042112456589 0.19181078066769236 -0.11407190816301065 0.00053566552571101948 -0.39639788533195519 0.098994865083449263 -0.26970286285566458 0.0065970608457993655 -0.2598005161443282 0.071783579738179268 -0.083678719292720152 -0.067467207210480606 -0.22819311805620962 0.21688991234471997 -0.33593457498125878 0.070801238345274811 -0.11136084671575586 -0.16938274087458577 0.21408270340549002 0.3471993001313512 0.076386525839372346 0.084026096038809617 0.022284106085100178 -0.13724229102506796 -0.0095255474533765001 -0.076806154371663174 -0.068197740368296331 0.17180240298336319 0.22176278229252094 0.076622764072889232 0.20215702322493576 -0.15943841220914159 -0.20427972295322999 -0.012460581589025832 0.13159954671209487 -0.11401906036712156 0.017381134127016397 -0.070118899837321655 0.29393201181874795 0.01297757608816809 0.22176662255340759 -0.14948502061019733 -0.048640233410378916 0.0034961545012951599 0.40358046107802614 -0.029588203570030721 -0.0047215977962269586 0.054603276726687078 -0.2055054026570676 0.0096919699194399356 0.11900726384264285 0.15563187750543528 -0.13535274527934865 -0.044233474471707078 -0.021781325391436443 0.2024581169990736 -0.04098577807792432 -0.091107777907619258 0.089390528195229815 0.12949792138438934 -0.022803210122308782 0.19426737645353195 0.26784455707820926 0.086457970099350759 0.23160348034066353 0.28986852776181932 0.084734367499781735 -0.055785890263117352 -0.39215918192177124 -0.14784517876385009;0.26437863585618987 0.20641310328603532 0.038200006049232148 0.28386265987906989 0.28589490839984305 0.010193599282400051 0.26613750838258227 0.21467944364002076 0.29933408528331146 0.081646241949103901 0.048799029560471288 0.18134420875298596 0.048696044327772726 -0.10939667293822339 -0.12583094493961969 0.065313927995924378 -0.027063929001220326 -0.030149770418492542 -0.097551950368593085 0.24263838605523355 0.16051428305749524 0.20566969328119111 0.27253016528844048 0.067207521724971242 0.02309353296564071 0.18858677190392553 0.18816172552895158 -0.13717139054000826 -0.10738412148577546 0.14820160376867506 0.07601787574997175 0.014230474619094966 0.11401161067134041 0.13693721828083899 -0.11415516703475827 -0.15914068496152325 -0.13912753356307839 0.10086424960931639 -0.040943643001684307 0.17075686857746195 0.20387761852379521 0.065256292758849116 -0.15255006867544663 0.078481000762391395 -0.0043761347907289704 0.27111280379493946 0.27703005524931967 0.028640248973699281 -0.20585993753502937 0.10279941868609531 -0.13993876305149303 -0.1377873939326506 -0.02071242631498204 -0.1333993908862173 0.03184082538217297 -0.11829698440447901 -0.14857170100802844 -0.12404955489438975 0.19850181961303515 0.29750048906818277 -0.11747717279900137 0.11309536430502547 -0.075958589747659067 0.0057298424533771897 0.066087395656036899 0.04632750401597148 0.21443793819659651 -0.075081633634639072 0.0078448984853105933 0.020706677074568389 0.16761354969563469 -0.029182391539350896 -0.07340637239514157 0.17124721452213118 0.15393156530992788 0.28436434572380542 0.079543117306761363 0.20410374265947817 -0.074608203859014857 0.2198034792386678 0.12143910635524535 0.078798990389998047 -0.10991670084777344 0.069312796905500837 -0.012281053205285473 0.11636558774021624 0.14569323061567158 0.26541301252168481 0.25852174375690812 0.24349075412829391 0.17097751075917947 0.25983026916236135 0.28907543443557954 -0.026785133931865917 -0.096097326201290467 0.080178910990752819 0.065798775590908437 0.06054635379501172;0.16466438773185788 -0.11280505133657742 -0.119754370310065 0.024463345909103564 0.14841328621708819 -0.013096568218472989 0.18369662888663627 -0.20123535017349478 0.0041482537479249296 0.24786897121924095 -0.11578060477376736 0.14183805231907115 0.10292160149863787 0.095170877522556666 -0.33287868512953661 0.02409322572014197 -0.27625289592591262 0.058653166479609511 -0.21323803226547411 0.0071993400174673247 0.0035628967004609586 0.39852316459106485 0.023122212090687922 0.0076775219413599029 0.12358595148064372 0.078338908470324528 0.027523609533211566 0.23250457155074347 -0.056821444058248807 0.15735522271901914 -0.085227762839379703 -0.20123489467164019 -0.082701830800207446 -0.26884541190857142 0.24315853247939326 -0.016479812019994683 0.051136244635595435 0.18959203746041542 0.069277345085093353 0.082947741255273752 0.13869743136954188 0.18200846099912854 0.032657006767867029 0.017130052839130074 -0.19648504444229267 0.13394475929576291 -0.0043571024842429581 -0.19602311964721808 -0.016717105987770015 0.31003892465632049 -0.19443207071359342 0.22903286529385386 0.1300397848384901 0.28887370509340443 -0.14622369056931217 -0.052749824147742944 0.13892674526320128 -0.1481784452109883 0.10463760490365391 0.12358567815263492 0.015093773049412108 0.10302366396361622 -0.062670321928137568 -0.22359423274252516 0.13248808958966446 -0.044127701511921781 -0.23456853722518942 0.20285433144465481 -0.010496617096917106 0.23579073022518385 -0.10149296089367589 0.27752823325094178 0.15033525073006568 -0.084125253399432165 0.32232849144223436 -0.089657734259479691 -0.033993273850663239 0.024195005978741989 -0.15194468205605335 -0.099172035992770163 -0.31798010498175394 0.33844891683635719 -0.1618279052277739 -0.055843359742460234 -0.15131378652774627 0.28848752108684761 -0.29719147854530958 -0.34866171917052757 -0.030315795482427858 0.20934841690521774 -0.19197517090506391 -0.14596504776697353 0.085107999644794791 -0.14810176467157105 0.23653659170388827 0.11809416776647386 -0.13934902360576776 -0.25004073860638931;-0.086765590522308533 -0.057548933781908333 0.17124451769993301 -1.1020809567426463e-06 -0.060994334513476557 -0.060636072874710741 -0.19847633898608313 -0.076825924292721601 -0.13650472163840349 0.11072637911139203 -0.24082226264819062 -0.22193865175996055 0.16092710391833709 -0.094373720807732334 -0.12536962752728312 -0.17815646783329916 -0.20100336864617366 -0.023690179221136816 0.24222756913096019 -0.061620684697503265 -0.03787675112816162 -0.15140371334030203 -0.1020367946320965 -0.044556389187727419 -0.024566886905520745 0.068684994130500707 0.24145722971187733 -0.2187255200314914 -0.050531038102964616 0.20985276786613916 -0.24477156985028514 -0.21924060495819941 0.027076825123896604 0.1140905802773784 0.17700543005335651 -0.092442000347044972 -0.20818912025855443 0.13153078500658719 -0.016738509981355579 0.20230653493957687 0.071513817222436105 -0.068196814163260067 0.0018459909773182359 0.054905828580894378 0.12435928406967374 0.14054331118540458 -0.20531062152368884 0.058809696101898637 -0.095759895306371162 -0.0096270754221201675 0.18709679915735328 0.11618169948503577 -0.015945311245931435 0.10755602958871707 -0.12910847789449945 -0.10960912241662431 0.11333631455752421 -0.18388254399259188 -0.097964160921439961 0.028913492674068404 -0.018212762683534254 -0.24627718260210596 -0.23223747943342271 -0.050250936885352912 -0.096308722440720584 0.13495014850692774 -0.21458505683123863 0.12318746515565872 -0.090431531084271558 -0.033115093812846261 0.21334889003012622 -0.019977464033446298 -0.21607890548134573 0.17354185321086402 -0.33510796928743902 -0.098392980195774152 -0.31805635886416239 -0.26467128884728292 0.051115174639621119 0.029239871121699474 -0.224915813824416 -0.010716695769288 -0.22501198691698834 0.20068650123289872 -0.089252531014135009 -0.089125863838883809 -0.10347909477915049 -0.18748124088011975 0.1275459836473353 0.076534034744865129 -0.058570390968459979 -0.061468631911790785 -0.08590457137810506 -0.13761767127901725 -0.12557939705280557 0.18595951686378639 0.090566182810555951 0.14739162945832207;0.18122301602284638 0.042036502273446068 -0.21102548608027336 -0.16257774869473218 -0.079975919565204542 -0.13164233105618325 0.29419727781491589 -0.115683179032877 -0.11863473584288807 -0.22898782587140037 -0.25940058769231716 0.31836424744246139 -0.018771903268147018 0.30297928780392641 -0.24376140458733614 -0.16947627467400006 0.20763966043962379 0.31189597991317591 0.30353341182802412 0.11290710303475325 0.35790986955488091 0.064006660651059616 0.15707291347192531 -0.19541649175716913 0.11909526787592158 -0.27724981832892104 0.17248851896026118 0.28327215574442238 0.10063737972115744 0.49500546036301557 -0.040029745788358294 0.093681157250434827 -0.16918604061384379 -0.10472764853190522 0.19049569849581086 -0.1871335879025314 0.21261707262256732 -0.17965798852281248 0.080437011771738468 0.022220913872104103 0.07527467708518211 -0.062579359191112904 0.06477542781837678 0.10818236401082039 -0.076900294568198954 0.0068137511251417076 -0.29833294347828282 -0.23993578807235846 -0.11913341408122924 -0.11377650681135477 0.023645113405506502 -0.050811955112804827 -0.12237059681356344 0.050180857771372052 0.063968703913236682 0.13392716072303351 0.2096849128745773 -0.0051440056418361989 0.14945177264212517 0.04353251921946704 -0.02298501996084382 0.17523163031891062 -0.0033775765441129719 0.13589989944560535 -0.043755953531578837 -0.081793063595798243 0.15782520530270619 0.031767245432967696 0.031720187956665979 -0.094593287850603586 0.1133862930944111 0.19993564499901842 0.14824912597144752 -0.15642132164141995 0.002581620311421228 0.095679444362923124 -0.034205369860340534 0.007648018617102223 -0.10733361015947519 -0.19464920339548011 -0.090343431465767038 -0.18019362270446082 -0.16142574796581488 0.20290405095448649 0.013606102008161623 0.31514008051949488 -0.36118814211541089 0.042410256290849935 0.11274585948499684 -0.19500511382845837 0.16671643257699734 0.068184280100176797 0.11452890750622922 -0.10824841850552992 0.053094594003252074 -0.086327310583257419 -0.26906836276524559 -0.35171662742828019;0.2152971460333559 -0.18646552942810068 0.073758065045769233 0.040046937255207041 0.0034275380058708636 -0.060737883642471888 -0.066595411728204698 0.062070978181455974 -0.24576205469426587 0.14293586731776176 0.32423753411920969 -0.19299178185739521 -0.047908296433494132 0.14226438631244637 0.21529354180575677 0.056054378515801064 -0.0085937223435768074 0.10887624952893171 -0.05597576072764672 -0.063474729063478952 -0.25902202136126296 -0.10643304839000819 -0.067236122931530418 0.27163382707056538 -0.12955897780459374 -0.089776434597584026 0.16152032039008088 -0.097251432991858608 0.050246308849112513 0.037024105223646825 -0.17712622113596099 -0.12466061953091913 -0.057355717349309457 0.084264699217216049 0.043502169597472405 0.10390496055436439 0.13851689323457569 0.18728151722852776 -0.21948710547418535 0.020771384068962003 0.010982670088793719 -0.17618783052402434 0.18619502821086198 0.018781800697478021 -0.089340867099515109 0.29656681801989992 0.11051827652398133 -0.15920598283646711 -0.097252021554035659 0.07680571576296584 -0.16686844905416734 0.19050510481271396 0.11938469528922052 0.015083575389762682 0.11248976155686986 0.37347685836074623 0.10113240567447064 -0.082153260443511594 0.25731483141570916 0.076918448543661269 0.29594035290075327 0.012265230447418637 0.13319175038496156 -0.2566997195815211 0.12593983282551277 -0.16066636363193115 -0.013040539371905769 0.2726142117801556 0.056020821053204092 -0.1885761047693891 -0.21378391679219322 0.065234789222117132 0.031280180596018489 0.18393411287376984 -0.032994215754577602 -0.044230987428553699 0.15465088528380203 0.21320063872545655 0.1713711926318672 0.060918642836681677 -0.22646508324243814 0.21639734869557847 0.055372029174222008 -0.11598745703457726 -0.11706282020814104 0.0034041944859039721 0.21176478146036795 -0.048215007180124565 0.092608463659714257 -0.24516324658280733 0.0041747308048849015 -0.21903656148944586 -0.030476860977385865 -0.21310951634149958 -0.17053854765051454 0.095180925153024704 0.020677970883769794 -0.34335499686887772;-0.33867490772134984 0.16089533349690874 0.19323182180175455 -0.069217829367340222 -0.010686363026201757 0.088837759255314439 0.030391245322594653 -0.030588747860402041 -0.15800586316681528 -0.03093573083044451 0.10780837998830148 -0.2115412595044027 -0.15885875469789615 0.12930623782248013 -0.10826474560323235 -0.21203421141710455 -0.1409078834089125 -0.26579328912583772 -0.20033301223132052 -0.047752555109441451 -0.18686775233920114 0.1482496651479708 0.17818617598541417 -0.19828508258803601 0.12052064098614702 0.023167955474721617 -0.039399430367795321 0.15261719093929318 -0.2118072428264933 -0.059002781530529465 0.036724180537400682 -0.16215864403003646 -0.088083488977647242 -0.12525935266324847 -0.23897555074737395 -0.10608038667439045 -0.075634946586461013 -0.10573761767277648 -0.18221769575550309 -0.22050744494889421 -0.18349800852874931 0.047920264113219618 0.18805290886056841 -0.31332308290363609 -0.030178370148340048 -0.034188189174710337 -0.21402921060254959 -0.15474312688893666 -0.069677812510683182 0.1737226518729289 -0.051571030956275431 0.16999795993895464 -0.18590536042574513 0.1480323076563442 -0.023806115894362892 -0.10254657728016536 0.18615900173964581 -0.24937420875746236 -0.074467737704362713 -0.21152510632048352 -0.067881619208922481 -0.020664994766037097 -0.19214877756349566 -0.15937758285713774 0.064312052139862172 0.11707365632316992 -0.061031564635718322 0.041453899171212012 0.13489855235051881 -0.14448180212736089 -0.32954748234545472 -0.24452317693933528 -0.025517550964634744 -0.119794407433675 0.066125855391753835 0.023301715233219725 -0.21405561193963307 -0.32767065151948832 0.18592456918020492 -0.027897105123051408 0.10270969480413697 -0.23105636133423366 0.085353769989785958 0.10561551967942245 -0.19332489557771101 -0.27269684916457126 -0.024028421668518762 -0.090088179085639666 -0.092739336324718147 -0.22523039030098732 0.13473876875092647 -0.073887848649980312 -0.24862726359179449 0.10734137857667039 0.070631892565969759 -0.1683502157168765 0.11010265803181278 -0.15171918813879443;-4.191433182606195 -0.31691002791656936 -0.097145112142794129 -0.0067821371474499348 0.0019898402988384762 0.13326521269508987 -0.026404783005913663 -0.03082724031563399 -0.084562460092656916 0.045366120538599466 -0.058482771790530748 0.018213074648799479 -0.012016828335246589 -0.02799329218797747 -0.089643115413323107 -0.031232200746365481 -0.029453631557045518 -0.10181569472675057 0.015459212894019225 -0.031055431642031107 0.047030223112614872 -0.022136361371871215 -0.082033750853089851 -0.013463367343622015 0.030941453016670208 -0.012387748776498748 -0.062610065734177239 -0.10309671616083391 -0.011632448375979824 -0.07988327232568973 -0.0034455400172951661 -0.10887636732983111 -0.082020662495041696 -0.012187773345320447 -0.0077218658335535531 0.033071395292614561 0.0501789007825134 -0.025878776315295674 -0.10721052678511291 0.018270348917311656 -0.034719485055997021 0.056317794948486107 0.0019613918716883606 -0.088005461032645962 0.053671845132570555 -0.026754585515641808 -0.024803584866994622 -0.031321549052162695 7.1683660014107193 0.552995212317132 0.10869054015728372 0.051321780271067208 -0.05788208508075747 -0.034689212217386113 -0.0263171332590048 -0.079364023589770211 -0.064138054901132543 -0.039281188729342199 -0.082066091026742782 0.0018375706017064416 -0.0049010815808091853 -0.05647503874826932 -0.029819189578866947 0.059607192667016654 -0.067207514989021194 -0.045689815226700098 0.0041362832184946019 0.049172858279077962 -0.07318821344773499 -0.013130010680226635 -0.039572081278444728 -0.019244984492480938 0.04037460064678601 0.060915904931383401 -0.1060548782512747 -0.0052193951864483246 -0.026368286161905195 -0.049683603260253145 -0.032140246489387139 0.0091237211128870933 -0.087002019501512318 -0.020737555994420821 -0.077622451410475871 -0.044074635419420645 -0.016082554371487895 -0.074079096726582597 -2.46644742235313e-05 -0.081777289084996679 0.0021278847797899922 0.0079841392396916462 -0.036928783201909406 -0.07033419370930101 -0.035540407210251958 -0.045478857770310924 -0.086673071142135349 -0.097920393705860337 0.091021703511386234 -0.025871508371023283;0.15093172570061583 0.21655367391168545 -0.098412401394623691 0.045108788680993987 0.19452932817938573 -0.14146224663715651 0.062141396441605844 -0.070307011905073324 -0.19159147633226362 -0.023964939316748205 0.13427184932809033 -0.023697277718629339 0.26022111690440342 0.27044370392612771 0.11814427535208713 -0.17695469280244169 0.14226204595471292 -0.056592255136199983 -0.10701806706278666 0.21597918110425737 -0.00085692626907560949 0.084211400571332667 0.11415285897705278 0.1827948589271495 0.01042168577794488 0.2449750043271596 -0.18031758221988972 -0.14991184806896751 0.14567327825968446 0.25235311709049546 0.13321143270722813 0.113164541626919 0.10293015756850968 0.15004103383869305 0.25372805785315961 0.13664668584910669 0.034931161405658995 0.074898640805184519 0.1795347970617312 0.020333849073572545 -0.17726572370395477 -0.10623770557503028 -0.094864235484203002 0.23593908264750829 0.12517409078939148 0.23187918272914151 -0.16572078188884559 -0.034024842048269097 -0.077234246949213978 -0.10774462839673865 0.050879311629314868 0.26352368703980728 0.27960186779958679 -0.090047541801809974 0.025691830272004532 -0.17265279870498776 -0.040070560842498437 0.27100744141568955 -0.062832319718257673 -0.00085277509713527374 -0.012194256683313469 0.12863872634004267 0.054173606959801855 0.016579869599432376 0.25591163192797528 0.012892525694754386 0.073513062378322822 -0.016165241444562769 0.27364939017221812 0.065310731202755448 -0.089281677886133212 0.047066750951214376 0.13748692718820391 0.27113112152435687 0.18476797439728812 -0.170645509864428 0.24719781137197858 0.20627679357108666 0.25875762180341833 0.0080687355341016419 -0.12026741755551003 0.2044661639058907 -0.15572154094285351 0.25368423198549644 0.28403823663059352 0.21105810032262703 -0.070395269386405057 0.0050430639960682032 0.029258870945356053 0.19978550325492006 0.037178800524142935 0.23193306875167227 0.21092853219743382 -0.056743922337756741 0.12388799030028631 -0.064728263468702849 -0.38755206584311602 -0.12305651917596307;0.10021104214051071 -0.062697024849547547 0.071133381268455365 0.28810049254444303 0.152639233722974 0.23956289762092259 0.064035285946341017 0.075643740016999972 0.15124613391992758 0.0083515681974406421 -0.18668509068211261 0.13221940519728398 0.018390604077619471 0.17839872542378957 -0.06550870967742245 -0.23732882071273423 0.076730094051837297 -0.23004685185080812 -0.045208114735585649 -0.07816624545783056 0.26848649169790212 0.12102896492364376 0.24804700567223503 -0.16535393327879891 0.20404604705204593 0.090607922156219128 0.10246232120908981 -0.012897138351301414 0.20323723223885062 -0.036844830310853754 0.19096335407150281 0.041703179782862164 0.11598877674439254 -0.25432744378769256 -0.095154269716518566 0.30817348194502336 0.11189361974767785 0.048062631658907902 -0.0024180344085383896 0.29163309877160587 0.090963729520969414 0.14936112332814697 0.11916347891214436 0.010394886321143704 -0.16047788398059973 -0.025771593965250729 0.031125008981628885 -0.15029771617500481 -0.14366943491073347 0.10142012681289485 0.11970963039185065 -0.010380887950274847 -0.031091431547706719 -0.19859486729877662 0.019474385777187332 -0.035036349781036515 0.19713224681783881 0.25038903210789382 -0.061678044148486239 -0.077988362216167784 -0.21024650663943434 -0.028533658571500139 0.00074698853477581941 0.027359517212958654 0.21800060889724604 0.14802044387867205 0.046189084827392819 0.12392312712786002 0.18585028010060897 -0.049356634736749484 0.098501666046236905 -0.016208382970368054 -0.10149416268242895 0.25211144870459606 0.086395147583845658 0.23181736428865127 0.023973877293719505 0.31034515162542592 0.053919975429541522 -0.023031635917487487 -0.07798745101535827 -0.14927969998479387 0.03642890262784966 -0.19802378436263998 0.21486548199745992 0.034040272579788942 0.31859002481981408 -0.055745677053719973 0.0061077287023400696 0.24995856698417854 -0.18919322719447815 0.17805300359075235 0.19221822088462412 -0.13955796658578931 0.12975760691885094 -0.24681197120312265 0.015675105405054436 0.0073787376497820171;1.7215480606750961 -0.098173073823977053 -0.2785198998888217 -0.060517662717284662 0.026893181667070391 -0.0047047869305590012 -0.1187434905172428 -0.080151593071610447 -0.068522735990243069 0.20093955949637002 -0.055546077956316151 0.10254154054448016 -0.01909740235347241 -0.044627532353186124 -0.020041303869643406 -0.058615893170456131 -0.057919014538318866 -0.17084903971300433 -0.080155028404647805 0.090960471334326359 -0.010780612107271069 -0.049820172962340752 -0.0036067682001385609 0.082896227717646986 -0.012847996122858796 -0.078702357553257718 0.13743983386042746 -0.001284816684156748 -0.16784266754397076 -0.013033496241111718 -0.097382854263532853 -0.11682156590597888 -0.23715065869043062 -0.20367218015766739 -0.010365455943748507 -0.020688181083331644 -0.1393305793824679 -0.13772460858635097 -0.099894260302836602 0.11174443736070566 -0.16675322645824867 -0.054801896173230592 -0.22763385795227803 -0.027772525087581816 -0.1698176752045146 -0.036785702578065696 -0.0088407981905884968 0.056815360202954697 -3.8130262615921251 -0.037060298428483893 0.0093229839837958416 -0.19776277554715285 0.002245218351366895 -0.035895508195357209 0.05865948355783672 0.0056794288580978543 -0.26165561889254046 0.015048387629058867 -0.085483909775932537 -0.064623586377007755 -0.011405001075824175 -0.055189084484597389 -0.070029110021279983 0.048681012702086406 -0.076067462955762513 -0.012042478135648939 -0.02085217499505574 -0.10627193082193437 -0.24076783606891272 -0.058414686099053266 -0.17002917102178039 0.11134781964448352 0.098783739376341995 -0.081661572688456432 -0.080606778134643953 -0.02732160878911535 -0.024474351606107687 -0.18810145808670431 -0.22865247004371697 -0.02727870604708724 -0.27695600580177471 0.11142557962464142 0.058897661374534685 -0.069402154157789303 0.045477643013610139 -0.10260758829112379 -0.0050322060531691462 -0.028979706158107563 -0.1133236688613921 0.036448365472754866 0.050158146133282511 0.016455086475759835 -0.14831111412831294 -0.036738706126866652 0.041371018707534311 0.043296982566298138 -5.9576597377538407 -0.14757057868266008;-0.4244833501938966 -0.21611985268476866 -0.2730054910084439 -0.14871271108909823 0.20235797538334035 -0.067625736120548799 0.051241168530033555 0.14824955200811241 -0.093425306337906661 -0.13673671133456361 -0.26589636751100049 -0.023724430760489943 0.093024270442406992 -0.19520169554798053 0.10966511960736602 0.10939052642183444 -0.24062125191860445 -0.00094446924698263039 -0.075702479325589753 -0.2107897748312389 -0.0026309803060268725 0.024805067081677547 -0.063918386469374366 -0.017940318240243613 -0.06962560629089834 0.14268732352153246 -0.2445587133732316 -0.19463572388225994 -0.12999365643865562 -0.055402318864114876 -0.27347471983686278 0.057724372813217253 0.0078627539554727288 -0.29199623725372686 -0.20640717474219974 -0.23155109416228892 -0.14995360495177468 0.048102242932154961 -0.16129174987660036 -0.14744696194072329 0.13914937283356912 0.12480839439085423 -0.1309525171683279 0.053762534358938428 -0.1148721284093453 -0.11316502426225482 -0.044223268672737397 0.15350154260058912 0.50176882556961289 -0.18920843249575345 -0.094765844989678064 0.16722385072597121 -0.14903424283703773 -0.18819622449209894 0.015313220595951714 0.11685047074732219 -0.19035790327232188 0.18058356634644529 -0.24221354528461955 0.061511622813219889 -0.26922475687634467 -0.023307830146783181 -0.23766143979288573 -0.2133826320253488 0.038239258046212928 -0.023923417439592781 0.093027109199576366 -0.21792999571513963 -0.093859646377791137 -0.0311044454315554 -0.16824319398891238 -0.27765245688672352 -0.027188936332825805 -0.094892055410682186 -0.16969230392377188 -0.11239887687010941 -0.13165898397734704 0.0691915301653801 -0.1482340641849702 0.086059346243452906 -0.055622738169323067 0.01623802001196702 0.036898146755557852 0.12195157096855172 0.059326913956684879 0.054034299189534861 -0.20825666490096817 0.08629443946650367 -0.30473546525623352 -0.11341418995657887 -0.21495829186718737 -0.24971272614732035 0.010410773702750687 -0.12785767475761201 -0.02891529489396074 -0.1044148430661799 0.032940127775950269 -0.16489633063174966;-0.032414295523754251 -0.19588384701177752 -0.003147473120198608 0.23507204235868495 0.049751662541887065 -0.022227383709762325 -0.1637210764766957 -0.13574271688244627 -0.097879949209248376 0.16063909744425675 -0.014566489578545703 0.14321239482477743 0.28003149528825916 0.0760917527470579 -0.10682267443017723 -0.041403556343786341 -0.098641448318853478 0.069437883045973064 -0.037642389638550641 -0.030876403710272046 0.12795077594594204 0.068453677571476843 -0.022980763662235015 0.28784120907078764 -0.00060316361669059408 0.027738390889959042 0.18618862610501016 -0.04713525294296806 0.02652619529979543 0.28198655364857528 -0.11745742126026437 -0.054625059544950116 0.17666061595072455 -0.21505675825164799 0.13190403418613758 0.12364084078994617 0.057263175993936682 -0.074612786946331958 -0.15553085184257184 0.050962053043916843 0.014655689228092994 0.036652521035662793 -0.094428672367956712 -0.27453251938489248 -0.17608049689979802 0.086394129884542592 0.048481438388949458 0.10239607563193209 -0.038815643121274342 0.2810539241520309 0.0061140796321930225 0.067013326501977555 0.007945593659678311 -0.13916922892442948 0.24845532110068444 0.038907260076838354 -0.070081971914982777 0.1000357752501433 0.10768775675292669 0.12029174315694846 0.18546510749278877 0.064860125439261535 -0.1882365588726666 0.055534843328520628 -0.071016601407897895 0.24300057018634819 -0.18821741150017984 0.061365119940316085 0.091183047634625189 -0.077904177597256014 -0.061273984630703986 0.11853547652777854 -0.017145186808244638 0.010797677241090639 -0.01352309383508276 0.076522317287153585 0.020213572217026462 0.0043748275178799763 0.094356456129428376 -0.20026490603095767 0.01685435689688854 0.17955998595507019 0.2439678226008003 0.019121412588074763 -0.042341622377418321 -0.19347868465406617 0.0034090939419370195 0.10247947107360922 0.18494225747301743 -0.045858820121305328 -0.10627727072858831 0.027066468152351347 -0.088610219632646814 -0.07570181133669722 -0.048453233937981136 0.0052923020678046443 1.3402087126326809 0.51492282523902255;0.83610819388093838 -0.21978170014078255 0.0083285606455727225 -0.13992463185938511 -0.14060820641697747 0.074002584122307938 -0.037394173789256392 0.026559785699820523 0.070654477922508285 0.064008476950978291 0.25684494392761681 -0.095180863322633397 0.021716217723813498 -0.059840462255133821 -0.051880552714354516 -0.0078681600196795244 -0.12485492757638739 -0.07945540669863288 0.024342089795667786 -0.14675758521376026 -0.057473180457200124 -0.13166881755244886 -0.0049936384965140832 0.10438952789316053 -0.0068791607362135195 0.056250372157930155 0.027734630959725295 -0.018342497962585289 -0.016496098536026783 0.015432213480110679 -0.046811846255975377 0.12727813839762198 -0.11756228245321979 -0.067954883654789064 0.091718005255734841 0.089619049117743085 0.07984630152946913 -0.026536200331326115 0.12010684921738315 0.12845616856402647 0.071193188989591302 0.18905373846767745 -0.084285299292043356 -0.08763667889323204 0.022377956530360399 -0.11315882113711501 0.2260427808060064 0.031222482457659725 -1.8328014745667451 0.52775077881242383 0.10764908351852082 0.042185875159777807 -0.040376076798651024 0.0058392690280859149 -0.18090633019694166 -0.05826407432099482 0.18674259723308434 0.0051208769924062404 -0.062810568710173681 -0.14551237820200516 0.09481611167781287 0.021484079396716801 0.067960243480102211 0.023686235371932884 -0.18530132242456382 -0.11437279964118847 -0.32967055618931812 -0.070091602743770007 -0.023147804669895938 -0.15077241946373085 0.053859717071931594 -0.16369432849926951 -0.10257858282003905 0.090413890810898651 -0.052398279571317881 -0.053055362960517258 -0.23760588545368266 -0.10387078686114722 0.0057916060703793477 -0.13409904891558894 -0.090394180187243975 -0.077688939635684393 0.19752868827040684 0.15328903205029204 0.15479759515731897 -0.037155716875127781 -0.17081704223522751 -0.094745425062991093 -0.20904232914555868 -0.11463668997983419 0.19703931952000869 0.017315704485861352 -0.063504000314480225 -0.062460866903341537 -0.081439236947586133 0.10317625596848415 -4.160022859078695 1.2879501952650352;0.02763902070848874 0.27817048307974906 0.19142007250345131 0.17783129018891913 -0.1346926850822443 0.14811002090521191 0.23370718730180473 -0.019401320926460946 0.26679548987927221 -0.090955825686304476 0.0027077183564276882 -0.02826666751097176 0.14663602063907269 0.0084746871875360213 0.18300196348437484 -0.17188594910653282 0.11071990708699468 0.29375293837187633 0.041700057526991297 -0.20688366445246939 -0.14238192610809419 -0.19163545505367877 -0.18223086944131489 0.16920249720017524 0.29429036005157139 -0.19185644269314939 -0.21155506879069333 -0.096881475072532058 -0.15711877179421166 -0.073665376134026156 0.10199204977960134 -0.074004827879606772 -0.24320504431067202 0.069720463306822689 -0.048444207659394611 -0.20106118267518988 -0.11466275296668546 0.19220542307548183 -0.19034051695157672 -0.0091240059965495418 -0.20575051592358279 0.13860998185180165 -0.20079050793696918 -0.0021494917879748645 0.26975508409767796 -0.12687866570944242 0.043405090362906504 0.20014204158344293 0.00606187764603553 0.12004962853961242 0.10470727761666547 -0.059808230158946339 -0.067098952666048747 0.24790668206505925 -0.012534491680692037 -0.060768080080756723 -0.14795875188879531 -0.16696764461026462 -0.10208679602356761 -0.18684715166487342 0.26108202914136053 0.0009444136435275771 -0.11094884961310005 0.068966739262620369 0.16086323697001401 0.17811932587034107 0.25322974298902023 -0.011736646157289971 0.17274522447531004 0.24966801924417339 0.021103350293289337 0.11145119377184975 0.20927203989499149 0.21914275291619442 -0.0058545062638364516 0.053108431658635331 0.042657908363462872 -0.1312363524810975 0.031846412222770161 -0.10311350548551833 0.12431947390746506 0.1508476461216835 0.16563710988770294 0.12860672760653688 0.093000760811597208 0.21272357732872996 0.061581512510637079 0.21455306821907758 -0.064211175580545565 -0.064956875785616972 0.14524549943369724 0.14845921063517944 0.20978652208521698 0.010518647390960496 -0.13672367978709768 0.093936759289169863 0.10003295012647521 0.0038322190288195921;-0.0003607832589146813 -0.015779884208018395 -0.050180890853941444 -0.12800756021904719 0.082313150201240581 -0.17344052004268967 0.098829112450413259 0.17412330019539674 0.10489320629852905 -0.11507225939090732 -0.11919121139181628 0.20313644341756495 -0.14678875682569434 -0.17414212097038498 -0.27171057165345103 -0.29722762594774155 -0.27799522432232188 0.00020935982480624698 -0.0062630771891639984 -0.0096128366135936703 0.054541040014786275 0.087956449523078087 -0.21971926357275984 -0.076428025438961836 -0.15178029217486158 0.0074309967015778224 -0.0064334400813422865 -0.24975916525676176 0.18181694277300106 -0.2881568724828143 0.10536278232847143 -0.13705770970063119 -0.22286131733011597 -0.21977915301732956 0.12043912461774087 -0.16675708432163788 0.10601241648088072 -0.13085187729493969 0.17175347785753614 -0.17367968623371524 -0.035805623826870567 -0.13358259378178972 -0.14945194107631343 -0.30068530248789582 0.022071155777537373 0.17392465236619886 -0.26342951057574165 -0.13779741758937236 -0.025442147034760266 -0.099696930684937429 -0.20866398216189247 0.16860636873954665 -0.0039967148418211884 -0.22741437406100334 0.016099450345916231 0.15452822226303273 0.1046360345296299 0.15033488408505755 